{"learner":{"attributes":{"scikit_learn":"{\"_estimator_type\": \"regressor\"}"},"feature_names":["nc_type","cap_status","days_until_due","audit_category"],"feature_types":["int","int","int","int"],"gradient_booster":{"model":{"gbtree_model_param":{"num_parallel_tree":"1","num_trees":"200"},"iteration_indptr":[0,1,2,3,4,5,6,7,8,9,10,11,12,13,14,15,16,17,18,19,20,21,22,23,24,25,26,27,28,29,30,31,32,33,34,35,36,37,38,39,40,41,42,43,44,45,46,47,48,49,50,51,52,53,54,55,56,57,58,59,60,61,62,63,64,65,66,67,68,69,70,71,72,73,74,75,76,77,78,79,80,81,82,83,84,85,86,87,88,89,90,91,92,93,94,95,96,97,98,99,100,101,102,103,104,105,106,107,108,109,110,111,112,113,114,115,116,117,118,119,120,121,122,123,124,125,126,127,128,129,130,131,132,133,134,135,136,137,138,139,140,141,142,143,144,145,146,147,148,149,150,151,152,153,154,155,156,157,158,159,160,161,162,163,164,165,166,167,168,169,170,171,172,173,174,175,176,177,178,179,180,181,182,183,184,185,186,187,188,189,190,191,192,193,194,195,196,197,198,199,200],"tree_info":[0,0,0,0,0,0,0,0,0,0,0,0,0,0,0,0,0,0,0,0,0,0,0,0,0,0,0,0,0,0,0,0,0,0,0,0,0,0,0,0,0,0,0,0,0,0,0,0,0,0,0,0,0,0,0,0,0,0,0,0,0,0,0,0,0,0,0,0,0,0,0,0,0,0,0,0,0,0,0,0,0,0,0,0,0,0,0,0,0,0,0,0,0,0,0,0,0,0,0,0,0,0,0,0,0,0,0,0,0,0,0,0,0,0,0,0,0,0,0,0,0,0,0,0,0,0,0,0,0,0,0,0,0,0,0,0,0,0,0,0,0,0,0,0,0,0,0,0,0,0,0,0,0,0,0,0,0,0,0,0,0,0,0,0,0,0,0,0,0,0,0,0,0,0,0,0,0,0,0,0,0,0,0,0,0,0,0,0,0,0,0,0,0,0,0,0,0,0,0,0],"trees":[{"base_weights":[-6.3720074E-7,-7.7338524E0,1.4337839E1,4.6376755E1,8.054842E0,2.3921432E1,5.555766E1,3.82301E0,2.8844612E1,8.094913E0,5.3508925E0,1.7663935E1,1.1389887E1,1.0976379E1,1.3004514E0,6.5076475E0,9.630551E0,2.6240427E0,1.4236086E1,-1.4117715E0,6.6927958E0,2.2622507E0,5.471422E-1,6.740532E0,3.9300275E0,-1.7542144E0,5.608049E-2,9.097303E-1,2.6141531E0],"categories":[],"categories_nodes":[],"categories_segments":[],"categories_sizes":[],"default_left":[0,0,0,0,0,0,0,0,0,0,0,0,0,0,0,0,0,0,0,0,0,0,0,0,0,0,0,0,0],"id":0,"left_children":[1,-1,3,5,7,9,11,13,15,-1,-1,-1,-1,17,19,-1,-1,21,23,25,27,-1,-1,-1,-1,-1,-1,-1,-1],"loss_changes":[4.1471638E5,0E0,1.4476405E5,2.2997906E4,5.3028926E4,1.8941211E2,2.615125E3,9.062258E3,1.6799609E3,0E0,0E0,0E0,0E0,3.5292705E3,5.464664E3,0E0,0E0,1.357615E2,5.847422E2,1.7668114E3,8.982964E2,0E0,0E0,0E0,0E0,0E0,0E0,0E0,0E0],"parents":[2147483647,0,0,2,2,3,3,4,4,5,5,6,6,7,7,8,8,13,13,14,14,17,17,18,18,19,19,20,20],"right_children":[2,-1,4,6,8,10,12,14,16,-1,-1,-1,-1,18,20,-1,-1,22,24,26,28,-1,-1,-1,-1,-1,-1,-1,-1],"split_conditions":[1E0,-7.7338524E0,-1.9E1,1E0,1.5E1,-5.3E1,-3.8E1,-2E0,4.4E1,8.094913E0,5.3508925E0,1.7663935E1,1.1389887E1,1E0,3E0,6.5076475E0,9.630551E0,-5E0,-6E0,1E0,5E0,2.2622507E0,5.471422E-1,6.740532E0,3.9300275E0,-1.7542144E0,5.608049E-2,9.097303E-1,2.6141531E0],"split_indices":[0,0,2,1,2,2,2,2,2,0,0,0,0,1,2,0,0,2,2,1,3,0,0,0,0,0,0,0,0],"split_type":[0,0,0,0,0,0,0,0,0,0,0,0,0,0,0,0,0,0,0,0,0,0,0,0,0,0,0,0,0],"sum_hessian":[1.12E3,4E2,7.2E2,1.17E2,6.03E2,3.5E1,8.2E1,5.02E2,1.01E2,2.1E1,1.4E1,6.7E1,1.5E1,1.3E2,3.72E2,3.4E1,6.7E1,3.7E1,9.3E1,2.48E2,1.24E2,4E0,3.3E1,9E0,8.4E1,6.5E1,1.83E2,4.5E1,7.9E1],"tree_param":{"num_deleted":"0","num_feature":"4","num_nodes":"29","size_leaf_vector":"1"}},{"base_weights":[5.9062906E-2,-5.4194827E0,1.0139045E1,3.2823895E1,5.690449E0,1.7118496E1,3.9240406E1,2.6183724E0,1.9935345E1,1.1641036E1,5.633244E0,1.2347776E1,7.337194E0,9.340796E0,1.1527282E0,1.6278784E1,7.3291125E0,3.8393703E0,1.2870301E0,2.9539294E0,1.1521767E1,6.587234E-2,5.566428E0,3.423188E0,1.7723999E1,3.4388566E-1,1.3998148E0,5.0541368E0,3.1490302E0,1.2809839E0,-4.161068E-1,8.2661194E-1,2.0762792E0,4.4229784E0,6.019118E0],"categories":[],"categories_nodes":[],"categories_segments":[],"categories_sizes":[],"default_left":[0,0,0,0,0,0,0,0,0,0,0,0,0,0,0,0,0,0,0,0,0,0,0,0,0,0,0,0,0,0,0,0,0,0,0],"id":1,"left_children":[1,-1,3,5,7,9,11,13,15,17,-1,-1,-1,19,21,23,-1,-1,-1,25,27,29,31,-1,33,-1,-1,-1,-1,-1,-1,-1,-1,-1,-1],"loss_changes":[2.0497825E5,0E0,7.257346E4,1.121957E4,2.6379693E4,1.08543945E2,1.3477656E3,4.8958677E3,1.3609922E3,3.8640015E1,0E0,0E0,0E0,1.2056958E3,1.966426E3,2.3396289E2,0E0,0E0,0E0,6.892903E1,1.8341992E2,2.021588E3,2.8934424E2,0E0,2.5004883E1,0E0,0E0,0E0,0E0,0E0,0E0,0E0,0E0,0E0,0E0],"parents":[2147483647,0,0,2,2,3,3,4,4,5,5,6,6,7,7,8,8,9,9,13,13,14,14,15,15,19,19,20,20,21,21,22,22,24,24],"right_children":[2,-1,4,6,8,10,12,14,16,18,-1,-1,-1,20,22,24,-1,-1,-1,26,28,30,32,-1,34,-1,-1,-1,-1,-1,-1,-1,-1,-1,-1],"split_conditions":[1E0,-5.4194827E0,-1.9E1,1E0,1.1E1,2E0,-2.8E1,-3E0,6.9E1,-2.6E1,5.633244E0,1.2347776E1,7.337194E0,1E0,4E0,2.6E1,7.3291125E0,3.8393703E0,1.2870301E0,7E0,-7E0,-1E0,5E0,3.423188E0,7E0,3.4388566E-1,1.3998148E0,5.0541368E0,3.1490302E0,1.2809839E0,-4.161068E-1,8.2661194E-1,2.0762792E0,4.4229784E0,6.019118E0],"split_indices":[0,0,2,1,2,3,2,2,2,2,0,0,0,1,2,2,0,0,0,3,2,2,3,0,3,0,0,0,0,0,0,0,0,0,0],"split_type":[0,0,0,0,0,0,0,0,0,0,0,0,0,0,0,0,0,0,0,0,0,0,0,0,0,0,0,0,0,0,0,0,0,0,0],"sum_hessian":[1.12E3,4E2,7.2E2,1.17E2,6.03E2,3.5E1,8.2E1,4.97E2,1.06E2,1E1,2.5E1,7.1E1,1.1E1,8.8E1,4.09E2,6.1E1,4.5E1,8E0,2E0,2.3E1,6.5E1,3.29E2,8E1,1.6E1,4.5E1,1.2E1,1.1E1,8E0,5.7E1,8.4E1,2.45E2,2.7E1,5.3E1,2.3E1,2.2E1],"tree_param":{"num_deleted":"0","num_feature":"4","num_nodes":"35","size_leaf_vector":"1"}},{"base_weights":[9.4809234E-2,-3.797692E0,7.187974E0,2.323473E1,4.041111E0,1.2281826E1,2.7705452E1,1.9220712E0,1.4451267E1,1.4286591E1,2.5568147E0,9.793488E0,6.705413E0,6.6503205E0,9.034296E-1,1.1441671E1,1.6815073E1,1.2632642E0,4.3697605E0,2.1404052E0,8.1895275E0,-9.776479E-1,3.1579332E0,2.0102303E0,1.2222333E1,4.0122294E0,5.5641084E0,1.5905901E0,4.3088368E-1,1.9538038E0,2.995397E0,-6.3780385E-1,5.7514155E-1,3.9478958E-1,1.577117E0,2.7166462E0,3.9768426E0],"categories":[],"categories_nodes":[],"categories_segments":[],"categories_sizes":[],"default_left":[0,0,0,0,0,0,0,0,0,0,0,0,0,0,0,0,0,0,0,0,0,0,0,0,0,0,0,0,0,0,0,0,0,0,0,0,0],"id":2,"left_children":[1,-1,3,5,7,9,11,13,15,17,-1,-1,-1,19,21,23,25,-1,-1,27,29,31,33,-1,35,-1,-1,-1,-1,-1,-1,-1,-1,-1,-1,-1,-1],"loss_changes":[1.0150191E5,0E0,3.6314402E4,5.437883E3,1.3296184E4,1.4954053E2,1.4653984E3,2.4166372E3,5.3324414E2,5.7128906E-1,0E0,0E0,0E0,6.0028174E2,1.7630593E3,9.5751465E1,7.972949E1,0E0,0E0,4.5812218E1,1.3364404E2,7.586853E2,7.2385364E2,0E0,1.0916016E1,0E0,0E0,0E0,0E0,0E0,0E0,0E0,0E0,0E0,0E0,0E0,0E0],"parents":[2147483647,0,0,2,2,3,3,4,4,5,5,6,6,7,7,8,8,9,9,13,13,14,14,15,15,16,16,19,19,20,20,21,21,22,22,24,24],"right_children":[2,-1,4,6,8,10,12,14,16,18,-1,-1,-1,20,22,24,26,-1,-1,28,30,32,34,-1,36,-1,-1,-1,-1,-1,-1,-1,-1,-1,-1,-1,-1],"split_conditions":[1E0,-3.797692E0,-1.9E1,1E0,1.5E1,-5.3E1,-7E1,-3E0,6E1,1E0,2.5568147E0,9.793488E0,6.705413E0,1E0,2E0,2E0,1E0,1.2632642E0,4.3697605E0,-9E0,6E0,3E0,2E0,2.0102303E0,1E0,4.0122294E0,5.5641084E0,1.5905901E0,4.3088368E-1,1.9538038E0,2.995397E0,-6.3780385E-1,5.7514155E-1,3.9478958E-1,1.577117E0,2.7166462E0,3.9768426E0],"split_indices":[0,0,2,1,2,2,2,2,2,3,0,0,0,1,1,3,1,0,0,2,3,2,0,0,1,0,0,0,0,0,0,0,0,0,0,0,0],"split_type":[0,0,0,0,0,0,0,0,0,0,0,0,0,0,0,0,0,0,0,0,0,0,0,0,0,0,0,0,0,0,0,0,0,0,0,0,0],"sum_hessian":[1.12E3,4E2,7.2E2,1.17E2,6.03E2,3.5E1,8.2E1,5.02E2,1.01E2,2.1E1,1.4E1,4E1,4.2E1,8.8E1,4.14E2,4.7E1,5.4E1,1E0,2E1,2.3E1,6.5E1,2.26E2,1.88E2,8E0,3.9E1,2.1E1,3.3E1,3E0,2E1,3.6E1,2.9E1,1.62E2,6.4E1,1.01E2,8.7E1,1.2E1,2.7E1],"tree_param":{"num_deleted":"0","num_feature":"4","num_nodes":"37","size_leaf_vector":"1"}},{"base_weights":[1.0923104E-1,-2.6612256E0,5.103494E0,1.612309E1,2.7876596E0,8.673015E0,1.9156952E1,1.1178321E0,1.0008629E1,3.3171291E0,6.637436E0,6.796196E0,1.4787488E1,3.649711E0,-1.9497077E-1,6.562511E0,1.1305044E1,1.2814322E0,2.3559992E0,2.9506629E0,4.6990113E0,2.6477892E-3,5.1332397E0,-2.6111245E0,2.4420993E0,1.6228288E0,2.4388857E0,8.403994E0,1.2789878E1,-7.221386E-1,3.7319022E-1,5.2583134E-1,1.8645141E0,1.1147139E-1,-1.1421897E0,-3.587254E-1,1.0566312E0,1.7773974E0,2.9854343E0,3.0138636E0,4.1945977E0],"categories":[],"categories_nodes":[],"categories_segments":[],"categories_sizes":[],"default_left":[0,0,0,0,0,0,0,0,0,0,0,0,0,0,0,0,0,0,0,0,0,0,0,0,0,0,0,0,0,0,0,0,0,0,0,0,0,0,0,0,0],"id":3,"left_children":[1,-1,3,5,7,9,11,13,15,-1,17,-1,19,21,23,25,27,-1,-1,-1,-1,29,31,33,35,-1,-1,37,39,-1,-1,-1,-1,-1,-1,-1,-1,-1,-1,-1,-1],"loss_changes":[5.032032E4,0E0,1.8354658E4,2.659162E3,7.187303E3,1.11022705E2,1.0096582E3,1.6161068E3,4.2618262E2,0E0,3.26214E1,0E0,2.8110352E1,8.981333E2,2.0516494E3,1.5654541E1,2.371211E2,0E0,0E0,0E0,0E0,1.4956822E2,4.2063452E2,6.0080945E2,6.0926135E2,0E0,0E0,5.614087E1,2.634375E1,0E0,0E0,0E0,0E0,0E0,0E0,0E0,0E0,0E0,0E0,0E0,0E0],"parents":[2147483647,0,0,2,2,3,3,4,4,5,5,6,6,7,7,8,8,10,10,12,12,13,13,14,14,15,15,16,16,21,21,22,22,23,23,24,24,27,27,28,28],"right_children":[2,-1,4,6,8,10,12,14,16,-1,18,-1,20,22,24,26,28,-1,-1,-1,-1,30,32,34,36,-1,-1,38,40,-1,-1,-1,-1,-1,-1,-1,-1,-1,-1,-1,-1],"split_conditions":[1E0,-2.6612256E0,-1E1,1E0,7E0,-7.4E1,-6E1,-1E0,3.8E1,3.3171291E0,3E0,6.796196E0,3E0,1E0,2E0,8E0,5E0,1.2814322E0,2.3559992E0,2.9506629E0,4.6990113E0,5E0,3E0,0E0,1E0,1.6228288E0,2.4388857E0,2E0,1E0,-7.221386E-1,3.7319022E-1,5.2583134E-1,1.8645141E0,1.1147139E-1,-1.1421897E0,-3.587254E-1,1.0566312E0,1.7773974E0,2.9854343E0,3.0138636E0,4.1945977E0],"split_indices":[0,0,2,1,2,2,2,2,2,0,3,0,3,1,2,3,3,0,0,0,0,3,3,2,1,0,0,0,1,0,0,0,0,0,0,0,0,0,0,0,0],"split_type":[0,0,0,0,0,0,0,0,0,0,0,0,0,0,0,0,0,0,0,0,0,0,0,0,0,0,0,0,0,0,0,0,0,0,0,0,0,0,0,0,0],"sum_hessian":[1.12E3,4E2,7.2E2,1.24E2,5.96E2,3.7E1,8.7E1,4.85E2,1.11E2,1.5E1,2.2E1,4.6E1,4.1E1,1.65E2,3.2E2,3.2E1,7.9E1,9E0,1.3E1,8E0,3.3E1,4.8E1,1.17E2,1.67E2,1.53E2,2.1E1,1.1E1,2.9E1,5E1,1.6E1,3.2E1,2.9E1,8.8E1,4.8E1,1.19E2,3.5E1,1.18E2,1.3E1,1.6E1,1.8E1,3.2E1],"tree_param":{"num_deleted":"0","num_feature":"4","num_nodes":"41","size_leaf_vector":"1"}},{"base_weights":[1.0900454E-1,-1.8648487E0,3.626734E0,1.2638023E1,2.172143E0,7.068545E0,1.4705757E1,1.0827249E0,7.177637E0,1.4177734E0,2.2797344E0,5.2766485E0,3.7056954E0,3.1125984E0,-1.2469301E-1,5.7274146E0,9.102355E0,5.5880696E-1,4.1947427E0,-3.0361228E0,1.3383726E0,4.3167152E0,7.0913854E0,1.6879426E0,2.9058163E0,-2.6548818E-1,6.7477274E-1,2.4281096E0,1.0440563E0,7.871252E-2,-1.7037882E0,-9.32586E-2,9.608888E-1,8.214266E-1,1.5375247E0,1.4662147E0,2.6245804E0],"categories":[],"categories_nodes":[],"categories_segments":[],"categories_sizes":[],"default_left":[0,0,0,0,0,0,0,0,0,0,0,0,0,0,0,0,0,0,0,0,0,0,0,0,0,0,0,0,0,0,0,0,0,0,0,0,0],"id":4,"left_children":[1,-1,3,5,7,9,11,13,15,-1,-1,-1,-1,17,19,21,23,25,27,29,31,33,35,-1,-1,-1,-1,-1,-1,-1,-1,-1,-1,-1,-1,-1,-1],"loss_changes":[2.4965047E4,0E0,9.42323E3,1.0476719E3,3.3840417E3,1.3220215E-1,2.7126758E2,1.255252E3,2.5769824E2,0E0,0E0,0E0,0E0,5.2549805E2,1.3756587E3,9.6382324E1,3.882959E1,1.4354501E2,3.4515894E2,9.430875E2,6.621521E2,3.063092E1,7.412268E1,0E0,0E0,0E0,0E0,0E0,0E0,0E0,0E0,0E0,0E0,0E0,0E0,0E0,0E0],"parents":[2147483647,0,0,2,2,3,3,4,4,5,5,6,6,7,7,8,8,13,13,14,14,15,15,16,16,17,17,18,18,19,19,20,20,21,21,22,22],"right_children":[2,-1,4,6,8,10,12,14,16,-1,-1,-1,-1,18,20,22,24,26,28,30,32,34,36,-1,-1,-1,-1,-1,-1,-1,-1,-1,-1,-1,-1,-1,-1],"split_conditions":[1E0,-1.8648487E0,-2.8E1,1E0,9E0,2E0,-8.5E1,-1E0,6.9E1,1.4177734E0,2.2797344E0,5.2766485E0,3.7056954E0,1E0,1E0,2E0,2E0,2E0,-7E0,0E0,7E0,1E0,6E0,1.6879426E0,2.9058163E0,-2.6548818E-1,6.7477274E-1,2.4281096E0,1.0440563E0,7.871252E-2,-1.7037882E0,-9.32586E-2,9.608888E-1,8.214266E-1,1.5375247E0,1.4662147E0,2.6245804E0],"split_indices":[0,0,2,1,2,3,2,2,2,0,0,0,0,1,2,0,3,0,2,2,3,1,3,0,0,0,0,0,0,0,0,0,0,0,0,0,0],"split_type":[0,0,0,0,0,0,0,0,0,0,0,0,0,0,0,0,0,0,0,0,0,0,0,0,0,0,0,0,0,0,0,0,0,0,0,0,0],"sum_hessian":[1.12E3,4E2,7.2E2,9.9E1,6.21E2,2.8E1,7.1E1,5.11E2,1.1E2,7E0,2.1E1,2.9E1,4.2E1,1.9E2,3.21E2,6.5E1,4.5E1,5.7E1,1.33E2,1.07E2,2.14E2,3.4E1,3.1E1,8E0,3.7E1,3.1E1,2.6E1,1.9E1,1.14E2,4.8E1,5.9E1,1.14E2,1E2,1.3E1,2.1E1,1.5E1,1.6E1],"tree_param":{"num_deleted":"0","num_feature":"4","num_nodes":"37","size_leaf_vector":"1"}},{"base_weights":[9.85891E-2,-1.3067893E0,2.5759501E0,8.130421E0,1.3632982E0,4.690561E0,9.515301E0,4.8880678E-1,5.114562E0,1.7480668E0,3.4390943E0,1.1071579E1,6.4445205E0,-8.686653E-1,2.0175471E0,4.1990714E0,7.008668E0,6.0413563E-1,1.2023721E0,9.090847E0,3.9707816E0,1.3998616E0,2.3001652E0,-1.932998E0,4.7403857E-1,3.370909E-1,3.0594227E0,2.6512568E0,5.163561E0,1.5516803E0,2.4848657E0,2.2636337E0,3.4908576E0,-8.472924E-1,-2.0656303E-1,-4.08966E-1,4.5737934E-1,5.191633E-1,-2.5805193E-1,2.560674E-1,1.1530602E0,3.1841978E-1,9.4109535E-1,7.352129E-1,1.7224758E0],"categories":[],"categories_nodes":[],"categories_segments":[],"categories_sizes":[],"default_left":[0,0,0,0,0,0,0,0,0,0,0,0,0,0,0,0,0,0,0,0,0,0,0,0,0,0,0,0,0,0,0,0,0,0,0,0,0,0,0,0,0,0,0,0,0],"id":5,"left_children":[1,-1,3,5,7,9,11,13,15,-1,17,19,21,23,25,27,29,-1,-1,31,-1,-1,-1,33,35,37,39,41,43,-1,-1,-1,-1,-1,-1,-1,-1,-1,-1,-1,-1,-1,-1,-1,-1],"loss_changes":[1.2382059E4,0E0,4.845312E3,5.6989746E2,1.942806E3,3.5421753E1,3.635371E2,1.0020095E3,1.6478198E2,0E0,8.954376E0,1.3260791E2,3.597644E1,3.6676172E2,3.9640637E2,1.0275232E2,3.905774E1,0E0,0E0,4.5941406E1,0E0,0E0,0E0,1.5667029E2,2.2211534E2,1.4830173E2,2.3886938E2,2.1382034E1,5.962964E1,0E0,0E0,0E0,0E0,0E0,0E0,0E0,0E0,0E0,0E0,0E0,0E0,0E0,0E0,0E0,0E0],"parents":[2147483647,0,0,2,2,3,3,4,4,5,5,6,6,7,7,8,8,10,10,11,11,12,12,13,13,14,14,15,15,16,16,19,19,23,23,24,24,25,25,26,26,27,27,28,28],"right_children":[2,-1,4,6,8,10,12,14,16,-1,18,20,22,24,26,28,30,-1,-1,32,-1,-1,-1,34,36,38,40,42,44,-1,-1,-1,-1,-1,-1,-1,-1,-1,-1,-1,-1,-1,-1,-1,-1],"split_conditions":[1E0,-1.3067893E0,-7E0,1E0,7E0,-6E1,-4.9E1,2E0,2E0,1.7480668E0,3E0,2E0,2E0,2E0,5E0,2E0,2E0,6.0413563E-1,1.2023721E0,7E0,3.9707816E0,1.3998616E0,2.3001652E0,7E0,5E0,0E0,1E0,3E0,2.6E1,1.5516803E0,2.4848657E0,2.2636337E0,3.4908576E0,-8.472924E-1,-2.0656303E-1,-4.08966E-1,4.5737934E-1,5.191633E-1,-2.5805193E-1,2.560674E-1,1.1530602E0,3.1841978E-1,9.4109535E-1,7.352129E-1,1.7224758E0],"split_indices":[0,0,2,1,2,2,2,0,1,0,3,0,0,1,3,0,0,0,0,3,0,0,0,3,3,2,1,3,2,0,0,0,0,0,0,0,0,0,0,0,0,0,0,0,0],"split_type":[0,0,0,0,0,0,0,0,0,0,0,0,0,0,0,0,0,0,0,0,0,0,0,0,0,0,0,0,0,0,0,0,0,0,0,0,0,0,0,0,0,0,0,0,0],"sum_hessian":[1.12E3,4E2,7.2E2,1.28E2,5.92E2,3.8E1,9E1,4.81E2,1.11E2,1.8E1,2E1,5.8E1,3.2E1,2.55E2,2.26E2,7.7E1,3.4E1,7E0,1.3E1,3.3E1,2.5E1,1.5E1,1.7E1,1.42E2,1.13E2,8.7E1,1.39E2,3.1E1,4.6E1,1.6E1,1.8E1,2.3E1,1E1,8.2E1,6E1,4.1E1,7.2E1,4E1,4.7E1,3.7E1,1.02E2,8E0,2.3E1,9E0,3.7E1],"tree_param":{"num_deleted":"0","num_feature":"4","num_nodes":"45","size_leaf_vector":"1"}},{"base_weights":[9.0503484E-2,-9.157302E-1,1.8383915E0,5.8054304E0,9.6414596E-1,8.440985E0,4.706271E0,4.05396E-1,4.035886E0,4.8230424E0,9.4316435E0,2.779215E0,5.5232778E0,-5.4594725E-1,1.4629614E0,2.6759326E0,4.763515E0,5.478051E-1,1.603214E0,7.112485E0,3.4681444E0,2.0139525E0,1.1277839E0,3.5936363E0,6.1858287E0,-2.0553536E0,-4.088134E-3,5.2149034E-1,2.5913851E0,1.662053E0,3.7126691E0,3.898063E0,1.9004426E0,2.2665222E0,8.0287325E-1,4.0429235E-1,7.8136814E-1,5.6252587E-1,1.4019086E0,1.9849464E0,1.2524704E0,1.7451382E-1,-7.832949E-1,-4.2278877E-1,1.8786566E-1,-1.3651055E-1,3.636708E-1,4.1739616E-1,9.7485554E-1,-6.8589784E-2,5.693807E-1,4.6993735E-1,1.3637444E0,8.1166244E-1,1.425235E0],"categories":[],"categories_nodes":[],"categories_segments":[],"categories_sizes":[],"default_left":[0,0,0,0,0,0,0,0,0,0,0,0,0,0,0,0,0,0,0,0,0,0,0,0,0,0,0,0,0,0,0,0,0,0,0,0,0,0,0,0,0,0,0,0,0,0,0,0,0,0,0,0,0,0,0],"id":6,"left_children":[1,-1,3,5,7,9,11,13,15,17,19,21,23,25,27,29,31,-1,-1,33,-1,35,-1,37,39,41,43,45,47,49,51,53,-1,-1,-1,-1,-1,-1,-1,-1,-1,-1,-1,-1,-1,-1,-1,-1,-1,-1,-1,-1,-1,-1,-1],"loss_changes":[6.163828E3,0E0,2.4949502E3,3.3687012E2,1.01443384E3,8.712427E1,1.3264502E2,5.0586487E2,7.730139E1,5.856308E0,5.601538E1,1.4929199E1,6.087195E1,2.1673126E2,2.5149469E2,2.9567627E1,5.4179443E1,0E0,0E0,1.1195679E1,0E0,3.9670334E0,0E0,2.6482498E1,1.3079834E1,1.0408508E2,1.7448213E2,8.891512E1,8.077765E1,8.907547E0,2.1488876E1,2.7822144E1,0E0,0E0,0E0,0E0,0E0,0E0,0E0,0E0,0E0,0E0,0E0,0E0,0E0,0E0,0E0,0E0,0E0,0E0,0E0,0E0,0E0,0E0,0E0],"parents":[2147483647,0,0,2,2,3,3,4,4,5,5,6,6,7,7,8,8,9,9,10,10,11,11,12,12,13,13,14,14,15,15,16,16,19,19,21,21,23,23,24,24,25,25,26,26,27,27,28,28,29,29,30,30,31,31],"right_children":[2,-1,4,6,8,10,12,14,16,18,20,22,24,26,28,30,32,-1,-1,34,-1,36,-1,38,40,42,44,46,48,50,52,54,-1,-1,-1,-1,-1,-1,-1,-1,-1,-1,-1,-1,-1,-1,-1,-1,-1,-1,-1,-1,-1,-1,-1],"split_conditions":[1E0,-9.157302E-1,-6E0,-9E1,2.6E1,1E0,1E0,2E0,1E0,2E0,5E0,2E0,4E0,1E0,2E0,7E0,9E1,5.478051E-1,1.603214E0,-9.2E1,3.4681444E0,7E0,1.1277839E0,2E0,-2.2E1,-3E0,4E0,5E0,5E0,1E0,6.3E1,2E0,1.9004426E0,2.2665222E0,8.0287325E-1,4.0429235E-1,7.8136814E-1,5.6252587E-1,1.4019086E0,1.9849464E0,1.2524704E0,1.7451382E-1,-7.832949E-1,-4.2278877E-1,1.8786566E-1,-1.3651055E-1,3.636708E-1,4.1739616E-1,9.7485554E-1,-6.8589784E-2,5.693807E-1,4.6993735E-1,1.3637444E0,8.1166244E-1,1.425235E0],"split_indices":[0,0,2,2,2,1,1,0,1,3,3,0,3,1,1,3,2,0,0,2,0,3,0,1,2,2,3,3,3,3,2,0,0,0,0,0,0,0,0,0,0,0,0,0,0,0,0,0,0,0,0,0,0,0,0],"split_type":[0,0,0,0,0,0,0,0,0,0,0,0,0,0,0,0,0,0,0,0,0,0,0,0,0,0,0,0,0,0,0,0,0,0,0,0,0,0,0,0,0,0,0,0,0,0,0,0,0,0,0,0,0,0,0],"sum_hessian":[1.12E3,4E2,7.2E2,1.29E2,5.91E2,3.6E1,9.3E1,5.01E2,9E1,9E0,2.7E1,2.9E1,6.4E1,2.64E2,2.37E2,3.3E1,5.7E1,2E0,7E0,1.5E1,1.2E1,1.8E1,1.1E1,1.8E1,4.6E1,6.9E1,1.95E2,1.3E2,1.07E2,1.8E1,1.5E1,3.9E1,1.8E1,1.3E1,2E0,1E1,8E0,8E0,1E1,3.6E1,1E1,1.2E1,5.7E1,6E1,1.35E2,5.4E1,7.6E1,3.9E1,6.8E1,2E0,1.6E1,5E0,1E1,1.8E1,2.1E1],"tree_param":{"num_deleted":"0","num_feature":"4","num_nodes":"55","size_leaf_vector":"1"}},{"base_weights":[8.34554E-2,-6.4169616E-1,1.3193998E0,3.969148E0,5.7475525E-1,7.0824904E0,3.4402232E0,-2.226791E-1,2.1836078E0,5.1045947E0,2.6836517E0,2.6477265E0,4.684733E0,7.9116714E-1,-1.1483532E0,1.5031589E0,3.0749185E0,9.15736E-1,1.801688E0,3.7105758E0,1.9491755E0,1.0489676E0,1.8092525E0,-1.0031794E0,1.4836901E0,-4.13074E0,1.4726944E-1,9.391196E-1,2.188643E0,2.451998E0,4.2743692E0,8.095878E-1,1.5179507E0,2.9390007E-1,7.220151E-1,-1.1667447E0,-8.76476E-2,1.6431147E-1,7.746433E-1,-1.4284232E0,-8.474919E-1,-1.5205348E-1,3.7542006E-1,1.3797648E-1,4.57656E-1,4.9124378E-1,9.5658857E-1,4.4573542E-1,8.8850063E-1,1.043532E0,1.7813486E0],"categories":[],"categories_nodes":[],"categories_segments":[],"categories_sizes":[],"default_left":[0,0,0,0,0,0,0,0,0,0,0,0,0,0,0,0,0,0,0,0,0,0,0,0,0,0,0,0,0,0,0,0,0,0,0,0,0,0,0,0,0,0,0,0,0,0,0,0,0,0,0],"id":7,"left_children":[1,-1,3,5,7,9,11,13,15,17,-1,19,21,23,25,27,29,-1,-1,31,33,-1,-1,35,37,39,41,43,45,47,49,-1,-1,-1,-1,-1,-1,-1,-1,-1,-1,-1,-1,-1,-1,-1,-1,-1,-1,-1,-1],"loss_changes":[3.0820024E3,0E0,1.4203386E3,2.3581714E2,7.240725E2,3.5403564E1,1.2271509E2,3.5565823E2,1.0879181E2,5.705658E0,0E0,5.661853E1,6.2082275E1,2.2640378E2,7.6568994E2,3.970172E1,4.9292297E1,0E0,0E0,3.1403046E1,2.15961E1,0E0,0E0,1.0351494E2,1.3327167E2,3.5959656E1,1.0102392E2,1.6439499E1,2.1234177E1,2.2684387E1,1.3769501E1,0E0,0E0,0E0,0E0,0E0,0E0,0E0,0E0,0E0,0E0,0E0,0E0,0E0,0E0,0E0,0E0,0E0,0E0,0E0,0E0],"parents":[2147483647,0,0,2,2,3,3,4,4,5,5,6,6,7,7,8,8,9,9,11,11,12,12,13,13,14,14,15,15,16,16,19,19,20,20,23,23,24,24,25,25,26,26,27,27,28,28,29,29,30,30],"right_children":[2,-1,4,6,8,10,12,14,16,18,-1,20,22,24,26,28,30,-1,-1,32,34,-1,-1,36,38,40,42,44,46,48,50,-1,-1,-1,-1,-1,-1,-1,-1,-1,-1,-1,-1,-1,-1,-1,-1,-1,-1,-1,-1],"split_conditions":[1E0,-6.4169616E-1,-4E0,-1.01E2,4E0,2E0,2E0,0E0,3.8E1,3E0,2.6836517E0,-5.7E1,2E0,1E0,1E0,2E0,2E0,9.15736E-1,1.801688E0,6E0,4E0,1.0489676E0,1.8092525E0,3E0,6E0,9E0,8E0,6E0,9E0,2E0,9.6E1,8.095878E-1,1.5179507E0,2.9390007E-1,7.220151E-1,-1.1667447E0,-8.76476E-2,1.6431147E-1,7.746433E-1,-1.4284232E0,-8.474919E-1,-1.5205348E-1,3.7542006E-1,1.3797648E-1,4.57656E-1,4.9124378E-1,9.5658857E-1,4.4573542E-1,8.8850063E-1,1.043532E0,1.7813486E0],"split_indices":[0,0,2,2,2,1,1,2,2,3,0,2,0,1,2,1,1,0,0,3,3,0,0,3,3,3,3,2,3,0,2,0,0,0,0,0,0,0,0,0,0,0,0,0,0,0,0,0,0,0,0],"split_type":[0,0,0,0,0,0,0,0,0,0,0,0,0,0,0,0,0,0,0,0,0,0,0,0,0,0,0,0,0,0,0,0,0,0,0,0,0,0,0,0,0,0,0,0,0,0,0,0,0,0,0],"sum_hessian":[1.12E3,4E2,7.2E2,1.57E2,5.63E2,2.1E1,1.36E2,3.77E2,1.86E2,1.2E1,9E0,8.5E1,5.1E1,1.8E2,1.97E2,1.07E2,7.9E1,5E0,7E0,3.2E1,5.3E1,2.9E1,2.2E1,5E1,1.3E2,5.9E1,1.38E2,6E1,4.7E1,5.4E1,2.5E1,2E1,1.2E1,1.8E1,3.5E1,9E0,4.1E1,7.1E1,5.9E1,3.8E1,2.1E1,8.7E1,5.1E1,3.4E1,2.6E1,3.2E1,1.5E1,2E1,3.4E1,1.9E1,6E0],"tree_param":{"num_deleted":"0","num_feature":"4","num_nodes":"51","size_leaf_vector":"1"}},{"base_weights":[7.161745E-2,-4.4966736E-1,9.44991E-1,2.8518386E0,4.0912765E-1,4.3639174E0,2.1918426E0,-6.953485E-2,1.8321214E0,2.2792652E0,5.093953E0,1.5663798E0,3.088279E0,-7.8397185E-1,6.868574E-1,1.4012398E0,2.7008908E0,2.3881414E0,1.2958145E-1,2.9549038E0,5.988503E0,1.0233911E0,2.3055282E0,2.4670286E0,1.2863065E0,-1.089771E0,6.4751107E-1,-4.6766362E-1,1.0797324E0,6.989552E-1,1.9475228E0,2.3341067E0,1.3232874E0,5.033136E-1,8.812071E-1,9.6910363E-1,3.1553954E-1,1.3461211E0,2.0972683E0,1.4553869E-1,5.2642614E-1,1.598734E-1,7.0543295E-1,9.2327154E-1,6.148859E-1,-6.394724E-1,-2.4708024E-1,5.526749E-1,-2.8569765E-2,-4.8017487E-1,4.8213456E-2,5.94594E-1,2.1024464E-1,-2.1273856E-1,2.8198364E-1,-1.5700342E-2,6.4579743E-1,5.3554136E-1,8.381457E-1],"categories":[],"categories_nodes":[],"categories_segments":[],"categories_sizes":[],"default_left":[0,0,0,0,0,0,0,0,0,0,0,0,0,0,0,0,0,0,0,0,0,0,0,0,0,0,0,0,0,0,0,0,0,0,0,0,0,0,0,0,0,0,0,0,0,0,0,0,0,0,0,0,0,0,0,0,0,0,0],"id":8,"left_children":[1,-1,3,5,7,9,11,13,15,17,19,21,23,25,27,29,31,33,-1,35,37,39,41,43,-1,45,47,49,51,53,55,57,-1,-1,-1,-1,-1,-1,-1,-1,-1,-1,-1,-1,-1,-1,-1,-1,-1,-1,-1,-1,-1,-1,-1,-1,-1,-1,-1],"loss_changes":[1.5390256E3,0E0,7.3555804E2,1.4811365E2,3.842868E2,5.991748E1,5.7959595E1,2.2912538E2,4.9371246E1,1.7842789E0,4.7363037E1,2.4932281E1,2.2953156E1,9.613435E1,9.3942955E1,3.5852448E1,1.8556702E1,1.4429474E-1,0E0,2.8926468E0,3.2469482E0,1.5288975E1,1.0258179E0,1.847229E0,0E0,4.8157913E1,3.478344E1,3.7987843E1,5.1260025E1,1.5597261E1,2.2265686E1,5.107361E0,0E0,0E0,0E0,0E0,0E0,0E0,0E0,0E0,0E0,0E0,0E0,0E0,0E0,0E0,0E0,0E0,0E0,0E0,0E0,0E0,0E0,0E0,0E0,0E0,0E0,0E0,0E0],"parents":[2147483647,0,0,2,2,3,3,4,4,5,5,6,6,7,7,8,8,9,9,10,10,11,11,12,12,13,13,14,14,15,15,16,16,17,17,19,19,20,20,21,21,22,22,23,23,25,25,26,26,27,27,28,28,29,29,30,30,31,31],"right_children":[2,-1,4,6,8,10,12,14,16,18,20,22,24,26,28,30,32,34,-1,36,38,40,42,44,-1,46,48,50,52,54,56,58,-1,-1,-1,-1,-1,-1,-1,-1,-1,-1,-1,-1,-1,-1,-1,-1,-1,-1,-1,-1,-1,-1,-1,-1,-1,-1,-1],"split_conditions":[1E0,-4.4966736E-1,-4E0,-8E1,5E0,1E0,2E0,2E0,2E0,-8.4E1,2E0,2E0,8E0,1E1,1E0,2E0,9.6E1,2E0,1.2958145E-1,-9.2E1,2E0,8E0,-7.6E1,-4.9E1,1.2863065E0,2E0,-1E0,5E0,-1E0,2E0,1E0,2E0,1.3232874E0,5.033136E-1,8.812071E-1,9.6910363E-1,3.1553954E-1,1.3461211E0,2.0972683E0,1.4553869E-1,5.2642614E-1,1.598734E-1,7.0543295E-1,9.2327154E-1,6.148859E-1,-6.394724E-1,-2.4708024E-1,5.526749E-1,-2.8569765E-2,-4.8017487E-1,4.8213456E-2,5.94594E-1,2.1024464E-1,-2.1273856E-1,2.8198364E-1,-1.5700342E-2,6.4579743E-1,5.3554136E-1,8.381457E-1],"split_indices":[0,0,2,2,2,1,1,0,1,2,3,0,3,3,1,0,2,0,0,2,0,3,2,2,0,3,2,3,2,3,3,0,0,0,0,0,0,0,0,0,0,0,0,0,0,0,0,0,0,0,0,0,0,0,0,0,0,0,0],"split_type":[0,0,0,0,0,0,0,0,0,0,0,0,0,0,0,0,0,0,0,0,0,0,0,0,0,0,0,0,0,0,0,0,0,0,0,0,0,0,0,0,0,0,0,0,0,0,0,0,0,0,0,0,0,0,0,0,0,0,0],"sum_hessian":[1.12E3,4E2,7.2E2,1.57E2,5.63E2,4.6E1,1.11E2,4.22E2,1.41E2,1.3E1,3.3E1,6.7E1,4.4E1,2.17E2,2.05E2,9.6E1,4.5E1,1.2E1,1E0,1.1E1,2.2E1,4E1,2.7E1,3.1E1,1.3E1,1.79E2,3.8E1,5.2E1,1.53E2,4.3E1,5.3E1,3.9E1,6E0,7E0,5E0,9E0,2E0,1.1E1,1.1E1,2.4E1,1.6E1,1E0,2.6E1,1E1,2.1E1,3.5E1,1.44E2,1.4E1,2.4E1,1.8E1,3.4E1,4.4E1,1.09E2,6E0,3.7E1,5E0,4.8E1,2E1,1.9E1],"tree_param":{"num_deleted":"0","num_feature":"4","num_nodes":"59","size_leaf_vector":"1"}},{"base_weights":[6.222942E-2,-3.1510356E-1,6.809259E-1,2.0634E0,2.9242975E-1,3.9906466E0,1.7388538E0,-3.5825148E-1,1.0279465E0,2.748426E0,1.5619408E0,1.1963673E0,2.4792495E0,4.9013636E-1,-1.6349177E0,7.7888036E-1,2.1377065E0,4.17071E-1,9.592785E-1,5.429363E-1,1.4953903E0,1.9052161E0,3.2449853E0,-1.1213374E-1,1.3625017E0,-2.8365011E0,-4.262304E-1,2.4542364E-1,1.3004067E0,1.7485434E0,7.277385E-1,1.0254911E-1,2.5519004E-1,5.857024E-1,2.4714427E-1,7.4911845E-1,4.1752347E-1,7.4537355E-1,1.1955171E0,-1.8126877E-1,2.5454643E-1,2.6353204E-1,7.876638E-1,-1.0269929E0,-6.4067477E-1,-5.8799493E-1,-5.7334393E-2,-3.7703864E-2,2.2129142E-1,6.830158E-2,5.044985E-1,3.7042612E-1,6.478311E-1],"categories":[],"categories_nodes":[],"categories_segments":[],"categories_sizes":[],"default_left":[0,0,0,0,0,0,0,0,0,0,0,0,0,0,0,0,0,0,0,0,0,0,0,0,0,0,0,0,0,0,0,0,0,0,0,0,0,0,0,0,0,0,0,0,0,0,0,0,0,0,0,0,0],"id":9,"left_children":[1,-1,3,5,7,9,11,13,15,17,-1,19,21,23,25,27,29,-1,-1,31,33,35,37,39,41,43,45,47,49,51,-1,-1,-1,-1,-1,-1,-1,-1,-1,-1,-1,-1,-1,-1,-1,-1,-1,-1,-1,-1,-1,-1,-1],"loss_changes":[7.723511E2,0E0,3.8663547E2,9.188684E1,2.7029132E2,1.891745E1,5.2060608E1,3.2573376E2,7.158197E1,3.485321E0,0E0,1.5014763E1,1.8872406E1,9.52501E1,1.7307162E2,6.0330994E1,1.1398315E0,0E0,0E0,1.379981E0,1.526989E1,7.161087E0,3.0421906E0,5.1566185E1,4.2936584E1,1.7367554E1,2.1622595E1,2.0002901E1,4.460553E1,2.4003372E0,0E0,0E0,0E0,0E0,0E0,0E0,0E0,0E0,0E0,0E0,0E0,0E0,0E0,0E0,0E0,0E0,0E0,0E0,0E0,0E0,0E0,0E0,0E0],"parents":[2147483647,0,0,2,2,3,3,4,4,5,5,6,6,7,7,8,8,9,9,11,11,12,12,13,13,14,14,15,15,16,16,19,19,20,20,21,21,22,22,23,23,24,24,25,25,26,26,27,27,28,28,29,29],"right_children":[2,-1,4,6,8,10,12,14,16,18,-1,20,22,24,26,28,30,-1,-1,32,34,36,38,40,42,44,46,48,50,52,-1,-1,-1,-1,-1,-1,-1,-1,-1,-1,-1,-1,-1,-1,-1,-1,-1,-1,-1,-1,-1,-1,-1],"split_conditions":[1E0,-3.1510356E-1,-4E0,-1.01E2,2E0,2E0,2E0,0E0,1E1,2E0,1.5619408E0,1E0,2E0,2E0,1E0,2E0,2E0,4.17071E-1,9.592785E-1,-2.1E1,-2.5E1,-5.8E1,7E0,8E0,8E0,7E0,2E0,2E0,1E0,3.8E1,7.277385E-1,1.0254911E-1,2.5519004E-1,5.857024E-1,2.4714427E-1,7.4911845E-1,4.1752347E-1,7.4537355E-1,1.1955171E0,-1.8126877E-1,2.5454643E-1,2.6353204E-1,7.876638E-1,-1.0269929E0,-6.4067477E-1,-5.8799493E-1,-5.7334393E-2,-3.7703864E-2,2.2129142E-1,6.830158E-2,5.044985E-1,3.7042612E-1,6.478311E-1],"split_indices":[0,0,2,2,2,1,0,2,3,3,0,1,1,1,2,0,1,0,0,2,2,2,3,3,3,3,3,1,1,2,0,0,0,0,0,0,0,0,0,0,0,0,0,0,0,0,0,0,0,0,0,0,0],"split_type":[0,0,0,0,0,0,0,0,0,0,0,0,0,0,0,0,0,0,0,0,0,0,0,0,0,0,0,0,0,0,0,0,0,0,0,0,0,0,0,0,0,0,0,0,0,0,0,0,0,0,0,0,0],"sum_hessian":[1.12E3,4E2,7.2E2,1.57E2,5.63E2,2.1E1,1.36E2,2.99E2,2.64E2,1.2E1,9E0,8E1,5.6E1,1.8E2,1.19E2,2.17E2,4.7E1,4E0,8E0,2.6E1,5.4E1,3.4E1,2.2E1,1.07E2,7.3E1,5.9E1,6E1,1.08E2,1.09E2,2.3E1,2.4E1,1.7E1,9E0,3.1E1,2.3E1,1.4E1,2E1,1.3E1,9E0,7.1E1,3.6E1,5.4E1,1.9E1,3E1,2.9E1,7E0,5.3E1,6.2E1,4.6E1,2.9E1,8E1,1.2E1,1.1E1],"tree_param":{"num_deleted":"0","num_feature":"4","num_nodes":"53","size_leaf_vector":"1"}},{"base_weights":[5.0907023E-2,-3.4455374E-1,9.33994E-1,-2.2080824E-1,7.4980915E-2,2.9120274E0,7.512449E-1,1.0384986E0,-2.4191706E-1,1.2916107E0,3.4678235E0,4.8347998E-1,1.3870282E0,1.5752363E0,5.8500856E-1,-7.381582E-1,3.6476684E-1,6.6978073E-1,5.7043594E-1,3.730509E0,4.2563498E-1,-1.4723888E-1,7.228203E-1,1.2713935E0,9.5731413E-1,6.5082246E-1,2.0141995E0,2.8766522E-1,9.7740114E-1,1.2999584E-1,-1.4281884E0,1.7348152E-1,1.3890334E0,2.7979374E-1,2.881012E-2,1.2962977E0,1.18613E0,8.2182276E-1,-3.2396808E-1,5.9474814E-1,2.0525393E0,1.9540584E0,8.610602E-1,3.0007866E-1,-7.4432835E-2,4.217722E-1,8.4794337E-1,-3.7472174E-3,2.1126798E-1,-2.8276064E-2,3.4547114E-1,-8.541452E-2,2.5282946E-1,-8.739455E-1,-3.3104843E-1,-9.126629E-3,2.3816136E-1,2.924562E-1,5.360807E-1,6.193428E-2,5.2139974E-1,-1.665287E-2,3.617257E-1,-2.255554E-1,1.3230778E-1,3.173251E-1,9.7826935E-2,2.3906337E-1,6.967647E-1,4.3284038E-1,7.8888696E-1,-1.9325472E-1,3.45204E-1],"categories":[],"categories_nodes":[],"categories_segments":[],"categories_sizes":[],"default_left":[0,0,0,0,0,0,0,0,0,0,0,0,0,0,0,0,0,0,0,0,0,0,0,0,0,0,0,0,0,0,0,0,0,0,0,0,0,0,0,0,0,0,0,0,0,0,0,0,0,0,0,0,0,0,0,0,0,0,0,0,0,0,0,0,0,0,0,0,0,0,0,0,0],"id":10,"left_children":[1,3,5,-1,7,9,11,13,15,17,19,21,23,25,27,29,31,33,-1,35,-1,37,39,41,-1,43,45,47,49,51,53,55,57,-1,-1,59,-1,61,63,65,67,69,71,-1,-1,-1,-1,-1,-1,-1,-1,-1,-1,-1,-1,-1,-1,-1,-1,-1,-1,-1,-1,-1,-1,-1,-1,-1,-1,-1,-1,-1,-1],"loss_changes":[3.9180444E2,1.27338684E2,1.2324722E2,0E0,1.1475253E2,2.1638931E1,5.3636124E1,2.1715157E1,8.5469666E1,2.139408E0,6.0105286E0,3.4222584E1,1.5552002E1,1.5732025E1,5.7859516E0,9.363785E1,2.4837702E1,8.153429E-1,0E0,4.656967E0,0E0,1.1055718E1,2.6708443E1,2.352826E1,0E0,4.9600124E0,9.8611145E0,3.884831E0,4.2148266E0,2.0931463E1,3.873311E1,1.3812618E1,1.5540581E0,0E0,0E0,1.0853586E0,0E0,3.4352684E0,1.8007303E1,1.8437878E1,2.8957825E0,7.60376E0,2.602623E1,0E0,0E0,0E0,0E0,0E0,0E0,0E0,0E0,0E0,0E0,0E0,0E0,0E0,0E0,0E0,0E0,0E0,0E0,0E0,0E0,0E0,0E0,0E0,0E0,0E0,0E0,0E0,0E0,0E0,0E0],"parents":[2147483647,0,0,1,1,2,2,4,4,5,5,6,6,7,7,8,8,9,9,10,10,11,11,12,12,13,13,14,14,15,15,16,16,17,17,19,19,21,21,22,22,23,23,25,25,26,26,27,27,28,28,29,29,30,30,31,31,32,32,35,35,37,37,38,38,39,39,40,40,41,41,42,42],"right_children":[2,4,6,-1,8,10,12,14,16,18,20,22,24,26,28,30,32,34,-1,36,-1,38,40,42,-1,44,46,48,50,52,54,56,58,-1,-1,60,-1,62,64,66,68,70,72,-1,-1,-1,-1,-1,-1,-1,-1,-1,-1,-1,-1,-1,-1,-1,-1,-1,-1,-1,-1,-1,-1,-1,-1,-1,-1,-1,-1,-1,-1],"split_conditions":[2E0,1E0,-5.6E1,-2.2080824E-1,-4E0,1E0,9E0,-5.6E1,2E0,5E0,-6.1E1,1E0,7.7E1,2E0,7E0,-1E0,1E1,-8.4E1,5.7043594E-1,1E0,4.2563498E-1,-3E0,8.9E1,0E0,9.5731413E-1,-8.5E1,2E0,2E0,-5.3E1,2E0,3E0,3.6E1,7E0,2.7979374E-1,2.881012E-2,2E0,1.18613E0,3E0,5E0,-1E0,4E0,2E0,1E0,3.0007866E-1,-7.4432835E-2,4.217722E-1,8.4794337E-1,-3.7472174E-3,2.1126798E-1,-2.8276064E-2,3.4547114E-1,-8.541452E-2,2.5282946E-1,-8.739455E-1,-3.3104843E-1,-9.126629E-3,2.3816136E-1,2.924562E-1,5.360807E-1,6.193428E-2,5.2139974E-1,-1.665287E-2,3.617257E-1,-2.255554E-1,1.3230778E-1,3.173251E-1,9.7826935E-2,2.3906337E-1,6.967647E-1,4.3284038E-1,7.8888696E-1,-1.9325472E-1,3.45204E-1],"split_indices":[0,0,2,0,2,1,3,2,2,3,2,1,2,3,3,2,3,2,0,3,0,2,2,2,0,2,1,1,2,1,3,2,2,0,0,1,0,3,2,2,3,1,2,0,0,0,0,0,0,0,0,0,0,0,0,0,0,0,0,0,0,0,0,0,0,0,0,0,0,0,0,0,0],"split_type":[0,0,0,0,0,0,0,0,0,0,0,0,0,0,0,0,0,0,0,0,0,0,0,0,0,0,0,0,0,0,0,0,0,0,0,0,0,0,0,0,0,0,0,0,0,0,0,0,0,0,0,0,0,0,0,0,0,0,0,0,0,0,0,0,0,0,0,0,0,0,0,0,0],"sum_hessian":[1.12E3,7.74E2,3.46E2,4E2,3.74E2,2.8E1,3.18E2,9.2E1,2.82E2,8E0,2E1,2.25E2,9.3E1,4.1E1,5.1E1,1.55E2,1.27E2,5E0,3E0,1.7E1,3E0,6.2E1,1.63E2,8.9E1,4E0,1.4E1,2.7E1,3E1,2.1E1,6.9E1,8.6E1,1.08E2,1.9E1,3E0,2E0,2E0,1.5E1,9E0,5.3E1,1.5E2,1.3E1,3.2E1,5.7E1,1E1,4E0,1.7E1,1E1,1.8E1,1.2E1,3E0,1.8E1,4.4E1,2.5E1,1.4E1,7.2E1,8.2E1,2.6E1,1.1E1,8E0,1E0,1E0,3E0,6E0,3.4E1,1.9E1,5.4E1,9.6E1,3E0,1E1,2E1,1.2E1,9E0,4.8E1],"tree_param":{"num_deleted":"0","num_feature":"4","num_nodes":"73","size_leaf_vector":"1"}},{"base_weights":[4.3509275E-2,-2.3884034E-1,6.739918E-1,-1.5473095E-1,5.7926454E-2,1.9696575E0,5.176779E-1,7.4866927E-1,-1.6927145E-1,1.3873864E0,8.193489E-1,-1.1359212E-1,6.9479704E-1,2.11055E0,6.1327726E-1,-5.233617E-1,2.6359844E-1,8.1744164E-1,2.0465705E0,-5.3767973E-1,5.660138E-1,5.8939946E-1,1.9063582E0,2.527855E-1,2.3927574E0,4.2373756E-1,9.1988367E-1,-4.3768607E-2,-1.2899811E0,-3.516657E-1,4.989308E-1,5.264397E-2,2.5599748E-1,6.992962E-1,3.1115973E-1,2.1487387E-1,-1.0881133E0,-3.503931E-1,9.703111E-1,9.7217655E-1,3.410387E-1,7.65358E-2,1.9839205E0,1.7145997E-1,7.928087E-1,2.1772891E-1,3.1973567E-2,1.5561719E-1,3.3159414E-1,-3.0367666E-1,1.1524462E-1,-6.044589E-1,-1.3368881E-1,-2.6051083E-1,1.0454611E-1,7.732969E-2,2.7295262E-1,3.1788963E-1,-2.4311144E-2,-4.180303E-1,-7.9538085E-2,-1.8376875E-1,1.1343995E-1,2.4352076E-3,3.940116E-1,2.423424E-1,5.15475E-1,-3.3965018E-1,1.9365744E-1,3.8078222E-1,6.7064124E-1],"categories":[],"categories_nodes":[],"categories_segments":[],"categories_sizes":[],"default_left":[0,0,0,0,0,0,0,0,0,0,0,0,0,0,0,0,0,0,0,0,0,0,0,0,0,0,0,0,0,0,0,0,0,0,0,0,0,0,0,0,0,0,0,0,0,0,0,0,0,0,0,0,0,0,0,0,0,0,0,0,0,0,0,0,0,0,0,0,0,0,0],"id":11,"left_children":[1,3,5,-1,7,9,11,13,15,17,-1,19,21,23,25,27,29,31,33,35,37,39,41,-1,43,45,47,49,51,53,55,-1,-1,-1,-1,57,59,61,63,65,67,-1,69,-1,-1,-1,-1,-1,-1,-1,-1,-1,-1,-1,-1,-1,-1,-1,-1,-1,-1,-1,-1,-1,-1,-1,-1,-1,-1,-1,-1],"loss_changes":[1.9971748E2,6.372206E1,6.925845E1,0E0,5.897747E1,1.261673E1,3.4851845E1,1.5853718E1,4.351478E1,6.9681168E0,0E0,2.0190996E1,2.990644E1,8.463783E-1,4.608021E0,5.729934E1,1.8708778E1,1.7275906E-1,4.53125E-1,1.804573E1,1.0343513E1,2.1058487E1,1.927269E0,0E0,1.2207756E0,5.191106E0,1.8070335E0,4.0588795E1,3.582543E1,1.3326391E1,8.981539E0,0E0,0E0,0E0,0E0,4.8353615E0,5.9124413E0,1.9506056E0,6.2610683E0,9.403511E0,6.2633606E1,0E0,3.9842987E-1,0E0,0E0,0E0,0E0,0E0,0E0,0E0,0E0,0E0,0E0,0E0,0E0,0E0,0E0,0E0,0E0,0E0,0E0,0E0,0E0,0E0,0E0,0E0,0E0,0E0,0E0,0E0,0E0],"parents":[2147483647,0,0,1,1,2,2,4,4,5,5,6,6,7,7,8,8,9,9,11,11,12,12,13,13,14,14,15,15,16,16,17,17,18,18,19,19,20,20,21,21,22,22,24,24,25,25,26,26,27,27,28,28,29,29,30,30,35,35,36,36,37,37,38,38,39,39,40,40,42,42],"right_children":[2,4,6,-1,8,10,12,14,16,18,-1,20,22,24,26,28,30,32,34,36,38,40,42,-1,44,46,48,50,52,54,56,-1,-1,-1,-1,58,60,62,64,66,68,-1,70,-1,-1,-1,-1,-1,-1,-1,-1,-1,-1,-1,-1,-1,-1,-1,-1,-1,-1,-1,-1,-1,-1,-1,-1,-1,-1,-1,-1],"split_conditions":[2E0,1E0,-4.5E1,-1.5473095E-1,-4E0,6E0,3E0,-1.14E2,2E0,2E0,8.193489E-1,4E0,8E1,1E0,7E0,0E0,3E0,1E0,-5.6E1,-1E0,1E0,0E0,4E0,2.527855E-1,1E0,-4.9E1,1E0,1E0,1E0,2E0,1.1E1,5.264397E-2,2.5599748E-1,6.992962E-1,3.1115973E-1,-1.2E1,2E0,6.2E1,1E0,1E1,1E0,7.65358E-2,9.7E1,1.7145997E-1,7.928087E-1,2.1772891E-1,3.1973567E-2,1.5561719E-1,3.3159414E-1,-3.0367666E-1,1.1524462E-1,-6.044589E-1,-1.3368881E-1,-2.6051083E-1,1.0454611E-1,7.732969E-2,2.7295262E-1,3.1788963E-1,-2.4311144E-2,-4.180303E-1,-7.9538085E-2,-1.8376875E-1,1.1343995E-1,2.4352076E-3,3.940116E-1,2.423424E-1,5.15475E-1,-3.3965018E-1,1.9365744E-1,3.8078222E-1,6.7064124E-1],"split_indices":[0,0,2,0,2,3,3,2,2,1,0,2,2,1,3,2,3,3,2,2,3,2,3,0,3,2,1,1,2,1,2,0,0,0,0,2,2,2,1,3,2,0,2,0,0,0,0,0,0,0,0,0,0,0,0,0,0,0,0,0,0,0,0,0,0,0,0,0,0,0,0],"split_type":[0,0,0,0,0,0,0,0,0,0,0,0,0,0,0,0,0,0,0,0,0,0,0,0,0,0,0,0,0,0,0,0,0,0,0,0,0,0,0,0,0,0,0,0,0,0,0,0,0,0,0,0,0,0,0,0,0,0,0,0,0,0,0,0,0,0,0,0,0,0,0],"sum_hessian":[1.12E3,7.74E2,3.46E2,4E2,3.74E2,3.6E1,3.1E2,9.2E1,2.82E2,2.2E1,1.4E1,6.8E1,2.42E2,7E0,8.5E1,1.55E2,1.27E2,1.3E1,9E0,4.2E1,2.6E1,2.24E2,1.8E1,2E0,5E0,5.4E1,3.1E1,9.6E1,5.9E1,3.5E1,9.2E1,1E0,1.2E1,6E0,3E0,1.8E1,2.4E1,8E0,1.8E1,8.7E1,1.37E2,1E0,1.7E1,1E0,4E0,2.7E1,2.7E1,1.1E1,2E1,2.9E1,6.7E1,3.1E1,2.8E1,2E1,1.5E1,5.9E1,3.3E1,4E0,1.4E1,1.7E1,7E0,6E0,2E0,5E0,1.3E1,7.3E1,1.4E1,2.3E1,1.14E2,6E0,1.1E1],"tree_param":{"num_deleted":"0","num_feature":"4","num_nodes":"71","size_leaf_vector":"1"}},{"base_weights":[3.4976833E-2,-1.6581158E-1,4.8332277E-1,-1.0842741E-1,4.380622E-2,1.788372E0,3.9376938E-1,-2.1021111E-1,4.0570316E-1,1.268374E0,8.164372E-1,-4.4205688E-2,5.609811E-1,5.483368E-1,-3.657253E-1,-6.042558E-1,5.428091E-1,4.4530883E-1,2.4931717E-1,-6.4529854E-1,9.2631444E-2,4.6061683E-1,1.3538992E0,2.5707164E-1,7.976219E-1,-5.1008004E-1,3.358997E-1,-9.088481E-1,2.0716889E-1,7.5230336E-1,4.9512455E-1,1.1252442E-1,-1.919632E-2,-8.396278E-1,1.9617844E-1,-2.5949478E-3,4.2789596E-1,-3.461876E-1,5.3310066E-1,5.894855E-1,1.072336E0,2.4154474E-1,3.1195594E-2,-2.587967E-2,2.8760296E-1,-3.1189283E-2,-2.4509187E-1,5.770042E-2,3.2180512E-1,-3.6985304E-2,-5.0303996E-1,-5.514479E-3,1.3165398E-1,1.0258334E-1,2.6748094E-1,-3.310118E-2,-3.085484E-1,-4.264069E-3,8.1314094E-2,1.7712757E-1,-4.3707903E-2,2.9697192E-1,-1.4490335E-1,1.2306664E-1,2.8651935E-1,5.7722572E-2,3.6488974E-1],"categories":[],"categories_nodes":[],"categories_segments":[],"categories_sizes":[],"default_left":[0,0,0,0,0,0,0,0,0,0,0,0,0,0,0,0,0,0,0,0,0,0,0,0,0,0,0,0,0,0,0,0,0,0,0,0,0,0,0,0,0,0,0,0,0,0,0,0,0,0,0,0,0,0,0,0,0,0,0,0,0,0,0,0,0,0,0],"id":12,"left_children":[1,3,5,-1,7,9,11,13,15,17,-1,19,21,23,25,27,29,-1,31,33,35,37,39,41,43,45,47,49,51,-1,53,-1,-1,55,57,59,-1,61,63,-1,65,-1,-1,-1,-1,-1,-1,-1,-1,-1,-1,-1,-1,-1,-1,-1,-1,-1,-1,-1,-1,-1,-1,-1,-1,-1,-1],"loss_changes":[1.0099555E2,3.179393E1,3.9850235E1,0E0,3.455832E1,7.2226334E0,2.3899261E1,2.6270802E1,2.1791058E1,3.1516E0,0E0,7.544691E0,1.8157402E1,2.55406E0,1.8807388E1,4.884206E0,1.1594448E1,0E0,1.8161078E-1,2.9446187E0,9.528876E0,1.2523895E1,2.366211E0,1.5104365E0,2.9297838E0,1.8984066E1,3.1785302E0,8.239126E0,3.2159686E-1,0E0,7.8940277E0,0E0,0E0,1.8148623E0,6.68595E-2,6.1110835E0,0E0,3.7686994E0,9.667168E0,0E0,2.2995167E0,0E0,0E0,0E0,0E0,0E0,0E0,0E0,0E0,0E0,0E0,0E0,0E0,0E0,0E0,0E0,0E0,0E0,0E0,0E0,0E0,0E0,0E0,0E0,0E0,0E0,0E0],"parents":[2147483647,0,0,1,1,2,2,4,4,5,5,6,6,7,7,8,8,9,9,11,11,12,12,13,13,14,14,15,15,16,16,18,18,19,19,20,20,21,21,22,22,23,23,24,24,25,25,26,26,27,27,28,28,30,30,33,33,34,34,35,35,37,37,38,38,40,40],"right_children":[2,4,6,-1,8,10,12,14,16,18,-1,20,22,24,26,28,30,-1,32,34,36,38,40,42,44,46,48,50,52,-1,54,-1,-1,56,58,60,-1,62,64,-1,66,-1,-1,-1,-1,-1,-1,-1,-1,-1,-1,-1,-1,-1,-1,-1,-1,-1,-1,-1,-1,-1,-1,-1,-1,-1,-1],"split_conditions":[2E0,1E0,-7.5E1,-1.0842741E-1,2E0,8E0,1E0,-2.6E1,1E0,-9.1E1,8.164372E-1,3E0,1.1E1,1E0,7E0,3E0,-1.16E2,4.4530883E-1,-8.4E1,1.03E2,8E1,1E0,-2E0,-1.06E2,1E0,-1E0,1.04E2,-1E0,5E0,7.5230336E-1,9E0,1.1252442E-1,-1.919632E-2,-4E0,1.08E2,-3E0,4.2789596E-1,-3.7E1,5E0,5.894855E-1,1E0,2.4154474E-1,3.1195594E-2,-2.587967E-2,2.8760296E-1,-3.1189283E-2,-2.4509187E-1,5.770042E-2,3.2180512E-1,-3.6985304E-2,-5.0303996E-1,-5.514479E-3,1.3165398E-1,1.0258334E-1,2.6748094E-1,-3.310118E-2,-3.085484E-1,-4.264069E-3,8.1314094E-2,1.7712757E-1,-4.3707903E-2,2.9697192E-1,-1.4490335E-1,1.2306664E-1,2.8651935E-1,5.7722572E-2,3.6488974E-1],"split_indices":[0,0,2,0,1,3,1,2,3,2,0,3,3,1,2,2,2,0,2,2,2,3,2,2,3,2,2,2,2,0,3,0,0,2,2,2,0,2,2,0,2,0,0,0,0,0,0,0,0,0,0,0,0,0,0,0,0,0,0,0,0,0,0,0,0,0,0],"split_type":[0,0,0,0,0,0,0,0,0,0,0,0,0,0,0,0,0,0,0,0,0,0,0,0,0,0,0,0,0,0,0,0,0,0,0,0,0,0,0,0,0,0,0,0,0,0,0,0,0,0,0,0,0,0,0,0,0,0,0,0,0,0,0,0,0,0,0],"sum_hessian":[1.12E3,7.74E2,3.46E2,4E2,3.74E2,2.1E1,3.25E2,2.2E2,1.54E2,1.5E1,6E0,9E1,2.35E2,3.7E1,1.83E2,1.8E1,1.36E2,1.2E1,3E0,1.6E1,7.4E1,2.1E2,2.5E1,1.8E1,1.9E1,1.52E2,3.1E1,1.3E1,5E0,2E0,1.34E2,2E0,1E0,1.3E1,3E0,7E1,4E0,1.7E1,1.93E2,6E0,1.9E1,3E0,1.5E1,3E0,1.6E1,6.6E1,8.6E1,2.7E1,4E0,7E0,6E0,3E0,2E0,9.8E1,3.6E1,3E0,1E1,1E0,2E0,1.3E1,5.7E1,1E0,1.6E1,1.51E2,4.2E1,3E0,1.6E1],"tree_param":{"num_deleted":"0","num_feature":"4","num_nodes":"67","size_leaf_vector":"1"}},{"base_weights":[2.846523E-2,-1.1447122E-1,3.4762168E-1,-7.5980306E-2,3.4253724E-2,8.748884E-1,2.2298612E-1,-7.805452E-2,5.3344756E-1,5.1064223E-1,1.3509853E0,-3.365762E-2,4.9103218E-1,3.5109532E-1,-2.1585788E-1,3.5489656E-2,7.219618E-1,1.0700003E0,3.9691308E-1,5.809541E-1,9.71708E-1,3.691281E-1,-5.9436464E-1,3.0067924E-1,7.64394E-1,1.1851391E-1,6.7738783E-1,-4.7517884E-1,8.35089E-2,3.6438334E-1,-3.298424E-1,6.1263204E-1,6.533444E-1,8.289929E-2,3.520404E-1,2.4614885E-1,8.561282E-1,5.516968E-1,3.5122195E-1,-4.610682E-1,5.3932273E-1,-1.1271605E0,-1.0813898E-1,-3.5164705E-1,3.7494934E-1,6.8449074E-1,4.3275264E-1,1.0329099E-1,-6.257467E-2,9.178128E-2,2.4463156E-1,-5.0145023E-2,-2.8974783E-1,-9.999656E-2,6.153712E-2,6.248017E-3,1.6731787E-1,-1.6044265E-1,3.339286E-2,1.5895292E-1,3.0954543E-1,1.4338608E-1,-5.871437E-2,4.8908272E-1,9.7909935E-2,2.9207116E-1,-1.427849E-1,-3.3225633E-2,-2.2612526E-1,1.076749E-1,2.8553116E-1,-4.660643E-1,-8.646141E-2,-6.7178704E-2,1.3507129E-1,-1.6184628E-1,1.726616E-1,9.092015E-2,2.817238E-1,1.74767E-1,2.7586737E-1],"categories":[],"categories_nodes":[],"categories_segments":[],"categories_sizes":[],"default_left":[0,0,0,0,0,0,0,0,0,0,0,0,0,0,0,0,0,0,0,0,0,0,0,0,0,0,0,0,0,0,0,0,0,0,0,0,0,0,0,0,0,0,0,0,0,0,0,0,0,0,0,0,0,0,0,0,0,0,0,0,0,0,0,0,0,0,0,0,0,0,0,0,0,0,0,0,0,0,0,0,0],"id":13,"left_children":[1,3,5,-1,7,9,11,13,15,17,19,21,23,25,27,29,31,33,35,-1,37,39,41,43,45,47,49,51,53,55,57,-1,59,-1,-1,61,63,65,-1,67,69,71,73,75,77,79,-1,-1,-1,-1,-1,-1,-1,-1,-1,-1,-1,-1,-1,-1,-1,-1,-1,-1,-1,-1,-1,-1,-1,-1,-1,-1,-1,-1,-1,-1,-1,-1,-1,-1,-1],"loss_changes":[5.1178787E1,1.600661E1,2.2608425E1,0E0,2.1065481E1,1.0755619E1,1.9415966E1,1.8231243E1,6.4515553E0,2.0563002E0,4.336445E0,3.2966892E1,6.951027E0,5.611438E0,1.812796E1,2.523297E0,3.1950455E0,1.6844893E-1,2.1431942E0,0E0,9.424248E-1,1.2258734E1,1.5680712E1,4.153062E0,2.046894E0,3.3952827E0,1.3401747E0,1.8730246E1,5.5938864E0,7.1905077E-1,9.637431E-1,0E0,1.7436581E0,0E0,0E0,2.8590455E0,2.7488437E0,3.9316669E0,0E0,1.4544919E0,4.9413815E0,9.92614E0,2.2344174E0,1.8779634E0,2.7567139E0,7.102947E-1,0E0,0E0,0E0,0E0,0E0,0E0,0E0,0E0,0E0,0E0,0E0,0E0,0E0,0E0,0E0,0E0,0E0,0E0,0E0,0E0,0E0,0E0,0E0,0E0,0E0,0E0,0E0,0E0,0E0,0E0,0E0,0E0,0E0,0E0,0E0],"parents":[2147483647,0,0,1,1,2,2,4,4,5,5,6,6,7,7,8,8,9,9,10,10,11,11,12,12,13,13,14,14,15,15,16,16,17,17,18,18,20,20,21,21,22,22,23,23,24,24,25,25,26,26,27,27,28,28,29,29,30,30,32,32,35,35,36,36,37,37,39,39,40,40,41,41,42,42,43,43,44,44,45,45],"right_children":[2,4,6,-1,8,10,12,14,16,18,20,22,24,26,28,30,32,34,36,-1,38,40,42,44,46,48,50,52,54,56,58,-1,60,-1,-1,62,64,66,-1,68,70,72,74,76,78,80,-1,-1,-1,-1,-1,-1,-1,-1,-1,-1,-1,-1,-1,-1,-1,-1,-1,-1,-1,-1,-1,-1,-1,-1,-1,-1,-1,-1,-1,-1,-1,-1,-1,-1,-1],"split_conditions":[2E0,1E0,-4E0,-7.5980306E-2,1E1,2E0,2E0,-4E0,1E0,-9.8E1,-7.5E1,0E0,2E0,2E0,2E0,-1E0,-1.16E2,-1.13E2,-1.9E1,5.809541E-1,-3.9E1,2E0,1E0,1E0,9.6E1,-3.7E1,2E0,0E0,2E0,-5.3E1,2E0,6.1263204E-1,3E0,8.289929E-2,3.520404E-1,-4.5E1,-1E1,-4.6E1,3.5122195E-1,-2E0,9E0,8E0,1.1E1,6.2E1,1.1E1,1E1,4.3275264E-1,1.0329099E-1,-6.257467E-2,9.178128E-2,2.4463156E-1,-5.0145023E-2,-2.8974783E-1,-9.999656E-2,6.153712E-2,6.248017E-3,1.6731787E-1,-1.6044265E-1,3.339286E-2,1.5895292E-1,3.0954543E-1,1.4338608E-1,-5.871437E-2,4.8908272E-1,9.7909935E-2,2.9207116E-1,-1.427849E-1,-3.3225633E-2,-2.2612526E-1,1.076749E-1,2.8553116E-1,-4.660643E-1,-8.646141E-2,-6.7178704E-2,1.3507129E-1,-1.6184628E-1,1.726616E-1,9.092015E-2,2.817238E-1,1.74767E-1,2.7586737E-1],"split_indices":[0,0,2,0,3,1,2,2,1,2,2,2,1,1,2,2,2,2,2,0,2,3,2,3,2,2,3,2,3,2,2,0,2,0,0,2,2,2,0,2,3,3,3,2,3,3,0,0,0,0,0,0,0,0,0,0,0,0,0,0,0,0,0,0,0,0,0,0,0,0,0,0,0,0,0,0,0,0,0,0,0],"split_type":[0,0,0,0,0,0,0,0,0,0,0,0,0,0,0,0,0,0,0,0,0,0,0,0,0,0,0,0,0,0,0,0,0,0,0,0,0,0,0,0,0,0,0,0,0,0,0,0,0,0,0,0,0,0,0,0,0,0,0,0,0,0,0,0,0,0,0,0,0,0,0,0,0,0,0,0,0,0,0,0,0],"sum_hessian":[1.12E3,7.74E2,3.46E2,4E2,3.74E2,6.5E1,2.81E2,3.06E2,6.8E1,3.8E1,2.7E1,1.44E2,1.37E2,7.4E1,2.32E2,1.9E1,4.9E1,5E0,3.3E1,9E0,1.8E1,8.4E1,6E1,8.2E1,5.5E1,4.4E1,3E1,1.24E2,1.08E2,1E1,9E0,1E0,4.8E1,1E0,4E0,2.6E1,7E0,7E0,1.1E1,1.4E1,7E1,2.8E1,3.2E1,8E0,7.4E1,5.1E1,4E0,2.6E1,1.8E1,9E0,2.1E1,7.7E1,4.7E1,2.4E1,8.4E1,4E0,6E0,6E0,3E0,3.8E1,1E1,1.7E1,9E0,2E0,5E0,5E0,2E0,7E0,7E0,5E1,2E1,1.8E1,1E1,2.7E1,5E0,7E0,1E0,6.7E1,7E0,3.8E1,1.3E1],"tree_param":{"num_deleted":"0","num_feature":"4","num_nodes":"81","size_leaf_vector":"1"}},{"base_weights":[2.3631748E-2,-7.877462E-2,2.5228104E-1,9.9667495E-1,-9.129128E-2,6.4557433E-1,1.5933906E-1,-2.6688084E-2,1.1434994E0,-1.6762099E-1,2.3624985E-2,1.8298028E0,5.3965956E-1,-2.5979292E-2,3.5290298E-1,1.8420136E-1,1.5194931E0,-3.228374E-1,-1.00992955E-1,-5.302033E-2,2.1369007E-1,1.6987954E-1,7.450218E-1,3.3028328E-1,8.16862E-1,2.5996464E-1,-4.2399988E-1,2.9124063E-1,9.7608757E-1,5.161164E-1,1.3752137E-1,-6.6798925E-2,-4.6305186E-1,-3.7244898E-1,-5.4736022E-2,4.1064048E-1,4.4026475E-2,2.2797254E-1,6.726632E-1,5.9127605E-1,3.3560154E-1,-3.4003767E-1,3.830642E-1,-8.080647E-1,-7.363984E-2,1.5291382E-1,4.8780984E-1,5.9603834E-1,4.1668466E-1,-7.8524284E-2,7.268706E-3,-5.2264165E-2,-2.3463823E-1,-1.5251948E-1,1.9930856E-2,-5.3031802E-2,2.9475363E-2,5.336341E-2,2.1099262E-1,-2.420428E-1,8.433377E-2,1.1811257E-1,-4.2861104E-2,3.9126626E-1,7.343216E-2,2.3642923E-1,8.1401974E-2,-1.8256567E-1,-8.705521E-3,-1.2820326E-2,1.652646E-1,-3.1241417E-1,2.2194672E-2,-4.7744855E-2,1.0130358E-1,-1.1936167E-1,6.4367086E-2,1.5722357E-1,3.672104E-2,8.900642E-3,2.0181297E-1],"categories":[],"categories_nodes":[],"categories_segments":[],"categories_sizes":[],"default_left":[0,0,0,0,0,0,0,0,0,0,0,0,0,0,0,0,0,0,0,0,0,0,0,0,0,0,0,0,0,0,0,0,0,0,0,0,0,0,0,0,0,0,0,0,0,0,0,0,0,0,0,0,0,0,0,0,0,0,0,0,0,0,0,0,0,0,0,0,0,0,0,0,0,0,0,0,0,0,0,0,0],"id":14,"left_children":[1,3,5,7,9,11,13,-1,15,17,19,21,23,25,27,-1,29,31,33,-1,35,-1,-1,37,39,41,43,45,47,-1,-1,49,51,53,55,57,59,61,63,65,-1,67,69,71,73,75,77,79,-1,-1,-1,-1,-1,-1,-1,-1,-1,-1,-1,-1,-1,-1,-1,-1,-1,-1,-1,-1,-1,-1,-1,-1,-1,-1,-1,-1,-1,-1,-1,-1,-1],"loss_changes":[2.626825E1,1.0523283E1,1.2581186E1,1.5363064E0,6.7317204E0,7.2907314E0,1.0124776E1,0E0,6.597185E-1,4.734949E0,1.1728735E1,2.7229977E0,3.328659E0,1.6612902E1,5.018652E0,0E0,6.403446E-2,4.9233093E0,4.0479918E0,0E0,5.2615404E0,0E0,0E0,1.1427298E0,1.1087418E0,6.4083586E0,8.148715E0,3.3786383E0,1.0550241E0,0E0,0E0,8.9363074E-1,8.066084E0,2.8380828E0,5.2076416E0,4.8478146E0,1.7574839E1,1.9001099E0,1.8426552E0,8.5665226E-1,0E0,1.2350386E0,5.096959E0,6.0451145E0,1.2144076E0,2.6657305E0,6.249962E-1,3.2743692E-1,0E0,0E0,0E0,0E0,0E0,0E0,0E0,0E0,0E0,0E0,0E0,0E0,0E0,0E0,0E0,0E0,0E0,0E0,0E0,0E0,0E0,0E0,0E0,0E0,0E0,0E0,0E0,0E0,0E0,0E0,0E0,0E0,0E0],"parents":[2147483647,0,0,1,1,2,2,3,3,4,4,5,5,6,6,8,8,9,9,10,10,11,11,12,12,13,13,14,14,16,16,17,17,18,18,20,20,23,23,24,24,25,25,26,26,27,27,28,28,31,31,32,32,33,33,34,34,35,35,36,36,37,37,38,38,39,39,41,41,42,42,43,43,44,44,45,45,46,46,47,47],"right_children":[2,4,6,8,10,12,14,-1,16,18,20,22,24,26,28,-1,30,32,34,-1,36,-1,-1,38,40,42,44,46,48,-1,-1,50,52,54,56,58,60,62,64,66,-1,68,70,72,74,76,78,80,-1,-1,-1,-1,-1,-1,-1,-1,-1,-1,-1,-1,-1,-1,-1,-1,-1,-1,-1,-1,-1,-1,-1,-1,-1,-1,-1,-1,-1,-1,-1,-1,-1],"split_conditions":[2E0,-1.14E2,-4E0,1E0,7E0,-1.08E2,2E0,-2.6688084E-2,2E0,1E0,1E0,3E0,2E0,0E0,1.08E2,1.8420136E-1,-1.16E2,-3E0,1E0,-5.302033E-2,0E0,1.6987954E-1,7.450218E-1,-1.9E1,7E0,2E0,1E0,2E0,6E0,5.161164E-1,1.3752137E-1,-6.8E1,1E0,4E0,1E0,-3E0,1E0,-4.5E1,-1E1,-4.6E1,3.3560154E-1,2E0,1E0,1E1,1.1E1,1E0,8.3E1,1.09E2,4.1668466E-1,-7.8524284E-2,7.268706E-3,-5.2264165E-2,-2.3463823E-1,-1.5251948E-1,1.9930856E-2,-5.3031802E-2,2.9475363E-2,5.336341E-2,2.1099262E-1,-2.420428E-1,8.433377E-2,1.1811257E-1,-4.2861104E-2,3.9126626E-1,7.343216E-2,2.3642923E-1,8.1401974E-2,-1.8256567E-1,-8.705521E-3,-1.2820326E-2,1.652646E-1,-3.1241417E-1,2.2194672E-2,-4.7744855E-2,1.0130358E-1,-1.1936167E-1,6.4367086E-2,1.5722357E-1,3.672104E-2,8.900642E-3,2.0181297E-1],"split_indices":[0,2,2,0,3,2,2,0,1,1,0,3,1,2,2,0,2,2,3,0,2,0,0,2,3,3,2,1,3,0,0,2,0,2,0,2,2,2,2,2,0,1,1,3,3,3,2,2,0,0,0,0,0,0,0,0,0,0,0,0,0,0,0,0,0,0,0,0,0,0,0,0,0,0,0,0,0,0,0,0,0],"split_type":[0,0,0,0,0,0,0,0,0,0,0,0,0,0,0,0,0,0,0,0,0,0,0,0,0,0,0,0,0,0,0,0,0,0,0,0,0,0,0,0,0,0,0,0,0,0,0,0,0,0,0,0,0,0,0,0,0,0,0,0,0,0,0,0,0,0,0,0,0,0,0,0,0,0,0,0,0,0,0,0,0],"sum_hessian":[1.12E3,7.74E2,3.46E2,8E0,7.66E2,6.5E1,2.81E2,1E0,7E0,4.6E2,3.06E2,4E0,6.1E1,1.44E2,1.37E2,4E0,3E0,1.37E2,3.23E2,1.49E2,1.57E2,2E0,2E0,3.6E1,2.5E1,8.4E1,6E1,1.26E2,1.1E1,2E0,1E0,4.9E1,8.8E1,4.6E1,2.77E2,7.2E1,8.5E1,2.9E1,7E0,1.6E1,9E0,1.4E1,7E1,2.8E1,3.2E1,7.5E1,5.1E1,7E0,4E0,1.5E1,3.4E1,4.7E1,4.1E1,3.5E1,1.1E1,1.54E2,1.23E2,4.1E1,3.1E1,1.8E1,6.7E1,2E1,9E0,2E0,5E0,9E0,7E0,7E0,7E0,2E1,5E1,2.2E1,6E0,2.7E1,5E0,7E0,6.8E1,4.6E1,5E0,1E0,6E0],"tree_param":{"num_deleted":"0","num_feature":"4","num_nodes":"81","size_leaf_vector":"1"}},{"base_weights":[1.9173605E-2,1.1361525E0,8.09715E-3,5.770998E-1,7.30378E-1,-6.450454E-2,1.6948092E-1,-2.268487E-2,2.0044242E-1,-1.3351515E-1,2.9760696E-2,8.539417E-2,3.717757E-1,-1.4358184E-1,6.2360644E-1,-1.201733E-1,2.0119987E-1,3.6663294E-1,2.2005418E-2,3.224745E-1,3.761591E-1,4.29719E-3,-1.9318852E-1,-1.8735034E-2,2.3199235E-1,-6.667781E-3,-3.724374E-2,-3.192908E-1,2.6910827E-1,2.8452176E-1,6.63464E-1,-1.4414798E-1,1.9810691E-1,5.60596E-1,1.526929E-1,-3.909949E-2,4.165478E-2,-1.398979E-1,-4.2715676E-2,-1.728163E-1,8.707362E-2,1.3277943E-1,4.0995862E-2,1.0779859E-1,-4.8560526E-2,4.681206E-3,2.9543802E-1,1.3999127E-2,-1.35184E-1,1.0254954E-1,1.9317605E-2,5.786212E-2,2.1339087E-1,-1.1341634E-2,1.2169888E-1],"categories":[],"categories_nodes":[],"categories_segments":[],"categories_sizes":[],"default_left":[0,0,0,0,0,0,0,0,0,0,0,0,0,0,0,0,0,0,0,0,0,0,0,0,0,0,0,0,0,0,0,0,0,0,0,0,0,0,0,0,0,0,0,0,0,0,0,0,0,0,0,0,0,0,0],"id":15,"left_children":[1,3,5,7,-1,9,11,-1,-1,13,15,17,19,21,23,25,27,29,31,33,-1,35,37,-1,-1,-1,-1,39,41,43,45,47,49,51,53,-1,-1,-1,-1,-1,-1,-1,-1,-1,-1,-1,-1,-1,-1,-1,-1,-1,-1,-1,-1],"loss_changes":[1.3860001E1,6.5798626E0,1.3028223E1,5.85341E-1,0E0,4.9935393E0,5.83681E0,0E0,0E0,3.4659595E0,8.378161E0,4.3596387E0,3.9879475E0,3.2139044E0,6.645148E-1,6.494355E-2,5.458467E0,9.0802145E-1,5.909789E0,3.8359804E0,0E0,2.0288155E0,4.484997E0,0E0,0E0,0E0,0E0,2.9843178E0,3.0417728E0,1.2937067E0,1.8582213E0,6.1026545E0,1.8613675E0,2.0795403E0,2.8103776E0,0E0,0E0,0E0,0E0,0E0,0E0,0E0,0E0,0E0,0E0,0E0,0E0,0E0,0E0,0E0,0E0,0E0,0E0,0E0,0E0],"parents":[2147483647,0,0,1,1,2,2,3,3,5,5,6,6,9,9,10,10,11,11,12,12,13,13,14,14,15,15,16,16,17,17,18,18,19,19,21,21,22,22,27,27,28,28,29,29,30,30,31,31,32,32,33,33,34,34],"right_children":[2,4,6,8,-1,10,12,-1,-1,14,16,18,20,22,24,26,28,30,32,34,-1,36,38,-1,-1,-1,-1,40,42,44,46,48,50,52,54,-1,-1,-1,-1,-1,-1,-1,-1,-1,-1,-1,-1,-1,-1,-1,-1,-1,-1,-1,-1],"split_conditions":[-1.14E2,9E0,2E0,1E0,7.30378E-1,2E0,9E0,-2.268487E-2,2.0044242E-1,1.11E2,1E0,-4E0,7.7E1,-4E0,1E0,1E0,1E0,-2E1,2E0,0E0,3.761591E-1,1E0,2E0,-1.8735034E-2,2.3199235E-1,-6.667781E-3,-3.724374E-2,3E0,0E0,-2.9E1,1E0,0E0,5E0,1E0,1.1E1,-3.909949E-2,4.165478E-2,-1.398979E-1,-4.2715676E-2,-1.728163E-1,8.707362E-2,1.3277943E-1,4.0995862E-2,1.0779859E-1,-4.8560526E-2,4.681206E-3,2.9543802E-1,1.3999127E-2,-1.35184E-1,1.0254954E-1,1.9317605E-2,5.786212E-2,2.1339087E-1,-1.1341634E-2,1.2169888E-1],"split_indices":[2,3,0,0,0,1,3,0,0,2,0,2,2,2,0,3,3,2,2,2,0,0,3,0,0,0,0,2,2,2,1,2,3,1,3,0,0,0,0,0,0,0,0,0,0,0,0,0,0,0,0,0,0,0,0],"split_type":[0,0,0,0,0,0,0,0,0,0,0,0,0,0,0,0,0,0,0,0,0,0,0,0,0,0,0,0,0,0,0,0,0,0,0,0,0,0,0,0,0,0,0,0,0,0,0,0,0,0,0,0,0,0,0],"sum_hessian":[1.12E3,1E1,1.11E3,8E0,2E0,7.66E2,3.44E2,1E0,7E0,4.42E2,3.24E2,2.44E2,1E2,4.37E2,5E0,1.73E2,1.51E2,4.4E1,2E2,9.6E1,4E0,1.1E2,3.27E2,1E0,4E0,7E0,1.66E2,1.7E1,1.34E2,3.6E1,8E0,1.03E2,9.7E1,3.9E1,5.7E1,5.5E1,5.5E1,5E1,2.77E2,1.2E1,5E0,5.7E1,7.7E1,3.1E1,5E0,3E0,5E0,6.4E1,3.9E1,4.6E1,5.1E1,1.2E1,2.7E1,3.3E1,2.4E1],"tree_param":{"num_deleted":"0","num_feature":"4","num_nodes":"55","size_leaf_vector":"1"}},{"base_weights":[1.5297611E-2,8.778659E-1,6.7435624E-3,4.2372218E-1,5.8430254E-1,-4.505253E-2,1.21876486E-1,-1.928214E-2,4.927559E-1,-4.993405E-2,2.6957417E-1,-1.6041042E-1,1.7366284E-1,5.63324E-2,1.6893616E-1,-1.4232908E-1,-1.3019878E-2,-3.0966133E-1,1.08799174E-1,-2.43768E-2,2.524268E-1,7.829071E-3,-2.164333E-1,-7.657259E-2,5.6913637E-2,8.295345E-2,-6.0827005E-1,5.2576065E-1,-2.1298854E-1,2.573062E-1,-1.10673465E-1,2.1264535E-1,5.127075E-1,-2.6320348E-2,4.675422E-2,-1.4297502E-1,-1.4780027E-2,3.168933E-3,-2.4941752E-2,-1.101054E-3,9.774924E-2,8.160539E-2,-2.829628E-2,-2.2592099E-1,-4.346762E-2,1.7263794E-2,3.2899275E-1,-2.3066369E-1,-7.4767685E-3,1.06353484E-1,-1.2350846E-1,-7.456223E-2,4.5567088E-2,1.0356102E-1,2.3332788E-2,7.748656E-2,2.1915135E-1],"categories":[],"categories_nodes":[],"categories_segments":[],"categories_sizes":[],"default_left":[0,0,0,0,0,0,0,0,0,0,0,0,0,0,0,0,0,0,0,0,0,0,0,0,0,0,0,0,0,0,0,0,0,0,0,0,0,0,0,0,0,0,0,0,0,0,0,0,0,0,0,0,0,0,0,0,0],"id":16,"left_children":[1,3,5,7,-1,9,11,-1,13,15,-1,17,19,-1,-1,21,23,25,27,29,31,33,35,37,39,41,43,45,47,49,51,53,55,-1,-1,-1,-1,-1,-1,-1,-1,-1,-1,-1,-1,-1,-1,-1,-1,-1,-1,-1,-1,-1,-1,-1,-1],"loss_changes":[8.265325E0,4.519047E0,6.630868E0,3.3486497E-1,0E0,3.5779495E0,5.0712786E0,0E0,6.593943E-2,2.6039104E0,0E0,2.2033987E0,4.5608826E0,0E0,0E0,2.4274573E0,2.4354799E0,4.1537952E0,2.7954428E0,2.0703745E0,2.0550318E0,1.0462695E0,6.3258257E0,1.6509497E-1,4.2534146E0,5.6191766E-1,1.2328286E0,2.3425503E0,1.2353666E0,1.4465606E0,2.390683E0,3.2448301E0,1.3074355E0,0E0,0E0,0E0,0E0,0E0,0E0,0E0,0E0,0E0,0E0,0E0,0E0,0E0,0E0,0E0,0E0,0E0,0E0,0E0,0E0,0E0,0E0,0E0,0E0],"parents":[2147483647,0,0,1,1,2,2,3,3,5,5,6,6,8,8,9,9,11,11,12,12,15,15,16,16,17,17,18,18,19,19,20,20,21,21,22,22,23,23,24,24,25,25,26,26,27,27,28,28,29,29,30,30,31,31,32,32],"right_children":[2,4,6,8,-1,10,12,-1,14,16,-1,18,20,-1,-1,22,24,26,28,30,32,34,36,38,40,42,44,46,48,50,52,54,56,-1,-1,-1,-1,-1,-1,-1,-1,-1,-1,-1,-1,-1,-1,-1,-1,-1,-1,-1,-1,-1,-1,-1,-1],"split_conditions":[-1.14E2,9E0,2E0,1E0,5.8430254E-1,1.18E2,2E0,-1.928214E-2,1E0,1E0,2.6957417E-1,4E0,1E0,5.63324E-2,1.6893616E-1,-3E0,1E0,-2E0,1.4E1,-3E0,3.4E1,-1.4E1,1E0,1E0,1E1,-1.2E1,3E0,5E0,1.8E1,1.1E1,5E0,0E0,2E0,-2.6320348E-2,4.675422E-2,-1.4297502E-1,-1.4780027E-2,3.168933E-3,-2.4941752E-2,-1.101054E-3,9.774924E-2,8.160539E-2,-2.829628E-2,-2.2592099E-1,-4.346762E-2,1.7263794E-2,3.2899275E-1,-2.3066369E-1,-7.4767685E-3,1.06353484E-1,-1.2350846E-1,-7.456223E-2,4.5567088E-2,1.0356102E-1,2.3332788E-2,7.748656E-2,2.1915135E-1],"split_indices":[2,3,0,0,0,2,3,0,1,1,0,2,1,0,0,2,0,2,2,2,2,2,2,3,3,2,2,2,2,3,2,2,1,0,0,0,0,0,0,0,0,0,0,0,0,0,0,0,0,0,0,0,0,0,0,0,0],"split_type":[0,0,0,0,0,0,0,0,0,0,0,0,0,0,0,0,0,0,0,0,0,0,0,0,0,0,0,0,0,0,0,0,0,0,0,0,0,0,0,0,0,0,0,0,0,0,0,0,0,0,0,0,0,0,0,0,0],"sum_hessian":[1.12E3,1E1,1.11E3,8E0,2E0,7.66E2,3.44E2,1E0,7E0,7.63E2,3E0,5.3E1,2.91E2,2E0,5E0,2.17E2,5.46E2,3.4E1,1.9E1,8.3E1,2.08E2,7.2E1,1.45E2,2.86E2,2.6E2,1.5E1,1.9E1,8E0,1.1E1,1.9E1,6.4E1,1.82E2,2.6E1,4.4E1,2.8E1,5.6E1,8.9E1,2E1,2.66E2,2.13E2,4.7E1,7E0,8E0,1.4E1,5E0,5E0,3E0,2E0,9E0,1.7E1,2E0,4.2E1,2.2E1,9.1E1,9.1E1,1.3E1,1.3E1],"tree_param":{"num_deleted":"0","num_feature":"4","num_nodes":"57","size_leaf_vector":"1"}},{"base_weights":[1.1838329E-2,-2.0180533E-2,1.6399036E-1,-7.455551E-2,5.554799E-2,4.6744156E-1,1.4146997E-1,-1.1522784E-1,6.282286E-2,3.5560596E-1,2.665357E-2,-5.1359344E-2,2.4441381E-1,-3.147725E-2,-2.113356E-1,2.8457117E-1,-1.7400144E-2,-1.8408887E-2,5.5769384E-1,-3.0919656E-2,1.3824907E-1,-2.6306704E-2,-1.795565E-2,1.9324027E-1,4.910796E-1,-9.164198E-2,1.17104806E-1,-4.306843E-1,-1.1920363E-1,5.8927327E-2,8.797406E-1,-4.963088E-1,8.995311E-2,8.940506E-2,7.569823E-1,7.645909E-2,-2.2131108E-1,-6.0406987E-2,2.5255132E-1,-2.7211744E-2,-3.0865541E-3,3.356247E-1,3.892521E-2,1.9502462E-1,1.055329E0,1.0806791E-3,-1.1925627E-1,-2.2454901E-1,5.58408E-2,5.03535E-3,-2.2016324E-1,4.331192E-2,-6.624195E-2,-5.987742E-3,1.9322434E-1,1.11761004E-1,4.2618343E-1,-1.5235826E-2,-1.8884583E-1,1.4013138E-1,5.6823744E-3,7.536785E-2,-1.565014E-1,1.1544754E-1,2.5468978E-1,-9.103429E-2,3.3431962E-2,-1.8772669E-1,-9.74258E-3,-3.2853335E-3,-1.838463E-2,1.594397E-1,3.2471213E-2,1.5957499E-2,-1.7693687E-2,1.9502133E-2,1.3649394E-1,-1.0114966E-1,4.805447E-2,-9.114933E-3,1.1881629E-1,4.314995E-1,1.8433847E-1],"categories":[],"categories_nodes":[],"categories_segments":[],"categories_sizes":[],"default_left":[0,0,0,0,0,0,0,0,0,0,0,0,0,0,0,0,0,0,0,0,0,0,0,0,0,0,0,0,0,0,0,0,0,0,0,0,0,0,0,0,0,0,0,0,0,0,0,0,0,0,0,0,0,0,0,0,0,0,0,0,0,0,0,0,0,0,0,0,0,0,0,0,0,0,0,0,0,0,0,0,0,0,0],"id":17,"left_children":[1,3,5,7,9,-1,11,13,15,17,19,21,23,25,27,29,31,-1,33,35,37,39,-1,41,43,45,47,49,51,53,55,57,59,61,63,65,67,69,71,-1,73,75,77,79,81,-1,-1,-1,-1,-1,-1,-1,-1,-1,-1,-1,-1,-1,-1,-1,-1,-1,-1,-1,-1,-1,-1,-1,-1,-1,-1,-1,-1,-1,-1,-1,-1,-1,-1,-1,-1,-1,-1],"loss_changes":[5.4645247E0,3.8212829E0,5.9019384E0,3.024489E0,3.3544817E0,0E0,3.8437173E0,3.349815E0,2.2108266E0,2.89921E0,2.2851186E0,1.2893692E-2,1.4955721E0,2.0131571E0,3.8692122E0,4.3799376E0,4.7745857E0,0E0,2.0787868E0,4.821259E0,2.7627826E0,2.8131813E-2,0E0,2.3159735E0,3.3022108E0,4.6627445E0,4.023299E0,7.7454767E0,3.7275386E0,1.1668732E0,1.9397569E0,9.767008E-1,2.0266018E0,9.2213786E-1,2.2101498E-1,2.0405204E0,6.4714365E0,1.2764484E-3,3.0418205E0,0E0,5.032006E-2,1.7468996E0,2.4253843E0,6.9173783E-1,2.9817486E-1,0E0,0E0,0E0,0E0,0E0,0E0,0E0,0E0,0E0,0E0,0E0,0E0,0E0,0E0,0E0,0E0,0E0,0E0,0E0,0E0,0E0,0E0,0E0,0E0,0E0,0E0,0E0,0E0,0E0,0E0,0E0,0E0,0E0,0E0,0E0,0E0,0E0,0E0],"parents":[2147483647,0,0,1,1,2,2,3,3,4,4,6,6,7,7,8,8,9,9,10,10,11,11,12,12,13,13,14,14,15,15,16,16,18,18,19,19,20,20,21,21,23,23,24,24,25,25,26,26,27,27,28,28,29,29,30,30,31,31,32,32,33,33,34,34,35,35,36,36,37,37,38,38,40,40,41,41,42,42,43,43,44,44],"right_children":[2,4,6,8,10,-1,12,14,16,18,20,22,24,26,28,30,32,-1,34,36,38,40,-1,42,44,46,48,50,52,54,56,58,60,62,64,66,68,70,72,-1,74,76,78,80,82,-1,-1,-1,-1,-1,-1,-1,-1,-1,-1,-1,-1,-1,-1,-1,-1,-1,-1,-1,-1,-1,-1,-1,-1,-1,-1,-1,-1,-1,-1,-1,-1,-1,-1,-1,-1,-1,-1],"split_conditions":[1E1,2E0,-1.15E2,5E0,-5.6E1,4.6744156E-1,1E0,-1E0,1.5E1,1E0,3E0,1E0,7E0,-3E0,3E0,2E0,3.5E1,-1.8408887E-2,2E0,0E0,1E0,-3E0,-1.795565E-2,0E0,2E0,-4E0,1E0,1E0,5E0,1.4E1,6E0,1E0,4.4E1,-8.5E1,4E0,-3.9E1,1E0,1E0,5E0,-2.7211744E-2,1E0,-3.1E1,1E0,1.1E1,3.9E1,1.0806791E-3,-1.1925627E-1,-2.2454901E-1,5.58408E-2,5.03535E-3,-2.2016324E-1,4.331192E-2,-6.624195E-2,-5.987742E-3,1.9322434E-1,1.11761004E-1,4.2618343E-1,-1.5235826E-2,-1.8884583E-1,1.4013138E-1,5.6823744E-3,7.536785E-2,-1.565014E-1,1.1544754E-1,2.5468978E-1,-9.103429E-2,3.3431962E-2,-1.8772669E-1,-9.74258E-3,-3.2853335E-3,-1.838463E-2,1.594397E-1,3.2471213E-2,1.5957499E-2,-1.7693687E-2,1.9502133E-2,1.3649394E-1,-1.0114966E-1,4.805447E-2,-9.114933E-3,1.1881629E-1,4.314995E-1,1.8433847E-1],"split_indices":[3,1,2,2,2,0,0,2,2,0,2,1,2,2,3,0,2,0,3,2,0,2,0,2,1,2,3,0,3,2,2,0,2,2,3,2,2,3,3,0,2,2,2,3,2,0,0,0,0,0,0,0,0,0,0,0,0,0,0,0,0,0,0,0,0,0,0,0,0,0,0,0,0,0,0,0,0,0,0,0,0,0,0],"split_type":[0,0,0,0,0,0,0,0,0,0,0,0,0,0,0,0,0,0,0,0,0,0,0,0,0,0,0,0,0,0,0,0,0,0,0,0,0,0,0,0,0,0,0,0,0,0,0,0,0,0,0,0,0,0,0,0,0,0,0,0,0,0,0,0,0,0,0,0,0,0,0,0,0,0,0,0,0,0,0,0,0,0,0],"sum_hessian":[1.12E3,9.26E2,1.94E2,5.39E2,3.87E2,2E0,1.92E2,4.16E2,1.23E2,3.3E1,3.54E2,6.7E1,1.25E2,2.23E2,1.93E2,3.2E1,9.1E1,1.1E1,2.2E1,2.34E2,1.2E2,1.8E1,4.9E1,1.05E2,2E1,1.59E2,6.4E1,5.6E1,1.37E2,2.4E1,8E0,1.6E1,7.5E1,7E0,1.5E1,1.5E2,8.4E1,4.4E1,7.6E1,4E0,1.4E1,5.4E1,5.1E1,1.4E1,6E0,1.22E2,3.7E1,4E0,6E1,2.3E1,3.3E1,3.8E1,9.9E1,2.2E1,2E0,5E0,3E0,4E0,1.2E1,1.1E1,6.4E1,6E0,1E0,4E0,1.1E1,1.2E1,1.38E2,2.6E1,5.8E1,1E0,4.3E1,2.5E1,5.1E1,7E0,7E0,1.7E1,3.7E1,1.2E1,3.9E1,7E0,7E0,2E0,4E0],"tree_param":{"num_deleted":"0","num_feature":"4","num_nodes":"83","size_leaf_vector":"1"}},{"base_weights":[9.693318E-3,3.1321788E-1,-2.1193894E-3,-1.2819617E-2,4.9271896E-1,-1.1230109E-2,3.828022E-1,3.143702E-1,3.2828084E-1,-2.0530865E-1,4.888325E-3,-1.7395819E-2,5.574413E-1,1.8808122E-1,3.970478E-1,2.0412443E-2,-3.2494265E-1,-8.1758454E-2,3.8652662E-2,3.3939284E-1,2.2133382E-1,4.0203857E-1,-1.4907531E-1,2.879135E-1,1.7118645E-1,4.0619906E-2,-2.900635E-2,2.7310562E-1,-4.218871E-1,-2.4553783E-1,-4.7638323E-2,-4.803529E-2,8.871284E-2,7.104492E-2,1.3327496E-1,1.2697221E-2,1.364811E-1,-1.0980034E-2,-8.9846425E-2,4.5700073E-2,1.1790802E-1,-1.5676717E-4,2.8660377E-2,4.667834E-3,-1.3188665E-2,-2.4417916E-1,1.634017E-1,-1.7618304E-1,-5.7150976E-4,-1.6969856E-2,-1.2728363E-1,-3.3396702E-2,8.012576E-3,-1.9594347E-2,-9.760983E-3,5.385639E-2,3.83988E-3,-7.547951E-3,3.3449937E-2],"categories":[],"categories_nodes":[],"categories_segments":[],"categories_sizes":[],"default_left":[0,0,0,0,0,0,0,0,0,0,0,0,0,0,0,0,0,0,0,0,0,0,0,0,0,0,0,0,0,0,0,0,0,0,0,0,0,0,0,0,0,0,0,0,0,0,0,0,0,0,0,0,0,0,0,0,0,0,0],"id":18,"left_children":[1,3,5,-1,7,9,11,13,-1,15,17,-1,19,21,23,25,27,29,31,33,-1,35,37,39,-1,41,43,45,47,49,51,53,55,57,-1,-1,-1,-1,-1,-1,-1,-1,-1,-1,-1,-1,-1,-1,-1,-1,-1,-1,-1,-1,-1,-1,-1,-1,-1],"loss_changes":[4.01995E0,2.7045784E0,3.7917643E0,0E0,2.6599975E0,3.3044276E0,1.9567952E0,1.6547227E-1,0E0,2.1939507E0,2.8585174E0,0E0,4.57407E-1,8.5344243E-1,8.1967354E-2,3.013846E-2,3.188024E0,1.5194626E0,3.0550106E0,2.4981987E-1,0E0,1.1394358E-1,7.3627226E-2,8.26413E-2,0E0,4.7495753E-2,6.6827075E-3,2.8049476E0,3.1940737E0,1.563518E0,1.0824872E0,6.69685E-2,3.0722318E0,1.837312E-2,0E0,0E0,0E0,0E0,0E0,0E0,0E0,0E0,0E0,0E0,0E0,0E0,0E0,0E0,0E0,0E0,0E0,0E0,0E0,0E0,0E0,0E0,0E0,0E0,0E0],"parents":[2147483647,0,0,1,1,2,2,4,4,5,5,6,6,7,7,9,9,10,10,12,12,13,13,14,14,15,15,16,16,17,17,18,18,19,19,21,21,22,22,23,23,25,25,26,26,27,27,28,28,29,29,30,30,31,31,32,32,33,33],"right_children":[2,4,6,-1,8,10,12,14,-1,16,18,-1,20,22,24,26,28,30,32,34,-1,36,38,40,-1,42,44,46,48,50,52,54,56,58,-1,-1,-1,-1,-1,-1,-1,-1,-1,-1,-1,-1,-1,-1,-1,-1,-1,-1,-1,-1,-1,-1,-1,-1,-1],"split_conditions":[-9.7E1,1E0,1.08E2,-1.2819617E-2,9E0,1E0,1E0,3E0,3.2828084E-1,1E0,1E0,-1.7395819E-2,6E0,-1.11E2,-1.01E2,3E0,-1.2E1,3E0,1E0,1E0,2.2133382E-1,1E0,-1E2,2E0,1.7118645E-1,-2E0,1E0,-7.8E1,4E0,-1E0,1E0,0E0,0E0,1.09E2,1.3327496E-1,1.2697221E-2,1.364811E-1,-1.0980034E-2,-8.9846425E-2,4.5700073E-2,1.1790802E-1,-1.5676717E-4,2.8660377E-2,4.667834E-3,-1.3188665E-2,-2.4417916E-1,1.634017E-1,-1.7618304E-1,-5.7150976E-4,-1.6969856E-2,-1.2728363E-1,-3.3396702E-2,8.012576E-3,-1.9594347E-2,-9.760983E-3,5.385639E-2,3.83988E-3,-7.547951E-3,3.3449937E-2],"split_indices":[2,0,2,0,3,3,0,3,0,0,1,0,3,2,2,2,2,3,0,1,0,1,2,1,0,2,1,2,2,2,2,2,2,2,0,0,0,0,0,0,0,0,0,0,0,0,0,0,0,0,0,0,0,0,0,0,0,0,0],"split_type":[0,0,0,0,0,0,0,0,0,0,0,0,0,0,0,0,0,0,0,0,0,0,0,0,0,0,0,0,0,0,0,0,0,0,0,0,0,0,0,0,0,0,0,0,0,0,0,0,0,0,0,0,0,0,0,0,0,0,0],"sum_hessian":[1.12E3,4.1E1,1.079E3,1.4E1,2.7E1,1.055E3,2.4E1,2.2E1,5E0,8E1,9.75E2,7E0,1.7E1,1E1,1.2E1,2.8E1,5.2E1,2.73E2,7.02E2,9E0,8E0,6E0,4E0,9E0,3E0,2E1,8E0,7E0,4.5E1,4.6E1,2.27E2,2.57E2,4.45E2,3E0,6E0,1E0,5E0,3E0,1E0,5E0,4E0,1.2E1,8E0,2E0,6E0,1E0,6E0,3.2E1,1.3E1,2.3E1,2.3E1,1.22E2,1.05E2,1.2E2,1.37E2,2.02E2,2.43E2,1E0,2E0],"tree_param":{"num_deleted":"0","num_feature":"4","num_nodes":"59","size_leaf_vector":"1"}},{"base_weights":[7.394541E-3,-3.604468E-2,6.8754055E-2,-9.721951E-2,4.365141E-2,3.9461932E-1,5.0125062E-2,-3.3131186E-2,-5.867992E-1,7.263575E-2,-1.01575844E-1,-7.33486E-3,5.0060904E-1,3.4425773E-2,4.171458E-1,-1.4863774E-1,1.4195454E-2,5.900783E-2,-8.3869255E-1,-3.353607E-2,1.3473281E-1,-2.21839E-1,3.2311285E-1,3.0169323E-1,2.480775E-1,-1.9416824E-2,9.897011E-2,-1.23341E-2,1.7896861E-1,-5.269052E-2,-7.571707E-1,1.3287638E-1,-1.4612536E-2,2.5329353E-2,3.2348257E-2,-1.1407592E0,-4.8420757E-1,-1.5040106E-2,-4.469648E-2,-1.2857635E-1,1.8799713E-1,-3.1343356E-2,-4.8181152E-1,2.6759721E-2,1.09554805E-1,1.1533846E-1,4.27042E-1,3.8349956E-2,-1.4327495E-1,-3.0479657E-2,1.6648321E-1,4.212776E-3,-6.908666E-2,3.1955812E-2,-3.930876E-1,-1.9513063E-2,8.6287245E-2,-7.964565E-2,7.5022564E-3,2.3950946E-2,2.5609208E-3,-1.2346924E-1,-3.832129E-1,1.8129349E-3,-2.1227945E-1,1.4036992E-2,-8.833796E-3,-1.8784342E-2,-7.138742E-3,-8.020568E-2,9.229529E-3,8.8180296E-2,6.3281823E-3,2.4244736E-3,-1.587263E-2,-2.1936163E-1,-4.230509E-2,4.6194077E-2,-1.7476846E-2,1.4154641E-1,1.7037965E-2,-1.1509578E-3,1.4266664E-1,-6.1920505E-2,2.9537857E-2,-1.2206027E-2,-6.485797E-3,8.988866E-2,2.8427495E-2],"categories":[],"categories_nodes":[],"categories_segments":[],"categories_sizes":[],"default_left":[0,0,0,0,0,0,0,0,0,0,0,0,0,0,0,0,0,0,0,0,0,0,0,0,0,0,0,0,0,0,0,0,0,0,0,0,0,0,0,0,0,0,0,0,0,0,0,0,0,0,0,0,0,0,0,0,0,0,0,0,0,0,0,0,0,0,0,0,0,0,0,0,0,0,0,0,0,0,0,0,0,0,0,0,0,0,0,0,0],"id":19,"left_children":[1,3,5,7,9,11,13,15,17,19,21,-1,23,25,27,29,31,33,35,37,39,41,43,45,-1,47,49,-1,-1,51,53,55,57,59,-1,61,63,65,67,69,71,73,75,-1,-1,77,79,81,83,85,87,-1,-1,-1,-1,-1,-1,-1,-1,-1,-1,-1,-1,-1,-1,-1,-1,-1,-1,-1,-1,-1,-1,-1,-1,-1,-1,-1,-1,-1,-1,-1,-1,-1,-1,-1,-1,-1,-1],"loss_changes":[2.9904022E0,3.2073784E0,2.8030217E0,1.1652559E1,1.2112424E0,1.122664E0,2.5266657E0,1.8060672E0,7.044491E0,1.5802352E0,2.52325E0,0E0,1.0487103E0,1.4754214E0,1.5044725E0,5.5652604E0,8.0539703E-1,1.8643044E-2,2.7670574E0,1.769936E-2,2.1419446E0,1.8667965E0,7.567394E-2,2.7777648E-1,0E0,1.6654278E0,1.6918086E0,0E0,0E0,9.9877584E-1,6.35E0,1.4275806E0,1.8951634E0,7.5565036E-3,0E0,1.0682049E0,1.7565548E0,3.2552853E-2,1.9107424E-2,5.8315676E-1,2.2216377E0,1.9982524E-2,1.2567613E0,0E0,0E0,5.5926353E-2,1.0583985E-1,2.9344459E0,1.1495551E0,5.179748E-3,1.1844401E0,0E0,0E0,0E0,0E0,0E0,0E0,0E0,0E0,0E0,0E0,0E0,0E0,0E0,0E0,0E0,0E0,0E0,0E0,0E0,0E0,0E0,0E0,0E0,0E0,0E0,0E0,0E0,0E0,0E0,0E0,0E0,0E0,0E0,0E0,0E0,0E0,0E0,0E0],"parents":[2147483647,0,0,1,1,2,2,3,3,4,4,5,5,6,6,7,7,8,8,9,9,10,10,12,12,13,13,14,14,15,15,16,16,17,17,18,18,19,19,20,20,21,21,22,22,23,23,25,25,26,26,29,29,30,30,31,31,32,32,33,33,35,35,36,36,37,37,38,38,39,39,40,40,41,41,42,42,45,45,46,46,47,47,48,48,49,49,50,50],"right_children":[2,4,6,8,10,12,14,16,18,20,22,-1,24,26,28,30,32,34,36,38,40,42,44,46,-1,48,50,-1,-1,52,54,56,58,60,-1,62,64,66,68,70,72,74,76,-1,-1,78,80,82,84,86,88,-1,-1,-1,-1,-1,-1,-1,-1,-1,-1,-1,-1,-1,-1,-1,-1,-1,-1,-1,-1,-1,-1,-1,-1,-1,-1,-1,-1,-1,-1,-1,-1,-1,-1,-1,-1,-1,-1],"split_conditions":[7E0,1E0,-7.8E1,0E0,6.9E1,1E0,9.2E1,1E0,1E0,1E0,1.12E2,-7.33486E-3,2E0,2E0,1E0,-1E0,-5.4E1,2E0,4E0,3E0,1E0,1E0,1E0,9E0,2.480775E-1,3E0,1E0,-1.23341E-2,1.7896861E-1,-3E0,1E0,3E0,-2E1,1E0,3.2348257E-2,1E0,5E0,1E0,5E0,4E0,5E0,3E0,9.4E1,2.6759721E-2,1.09554805E-1,-9.1E1,-8.2E1,2E0,1.1E1,0E0,0E0,4.212776E-3,-6.908666E-2,3.1955812E-2,-3.930876E-1,-1.9513063E-2,8.6287245E-2,-7.964565E-2,7.5022564E-3,2.3950946E-2,2.5609208E-3,-1.2346924E-1,-3.832129E-1,1.8129349E-3,-2.1227945E-1,1.4036992E-2,-8.833796E-3,-1.8784342E-2,-7.138742E-3,-8.020568E-2,9.229529E-3,8.8180296E-2,6.3281823E-3,2.4244736E-3,-1.587263E-2,-2.1936163E-1,-4.230509E-2,4.6194077E-2,-1.7476846E-2,1.4154641E-1,1.7037965E-2,-1.1509578E-3,1.4266664E-1,-6.1920505E-2,2.9537857E-2,-1.2206027E-2,-6.485797E-3,8.988866E-2,2.8427495E-2],"split_indices":[3,2,2,2,2,0,2,1,0,0,2,0,1,1,0,2,2,1,3,3,3,0,1,3,0,2,0,0,0,2,0,3,2,1,0,1,3,1,3,2,3,3,2,0,0,2,2,2,3,2,2,0,0,0,0,0,0,0,0,0,0,0,0,0,0,0,0,0,0,0,0,0,0,0,0,0,0,0,0,0,0,0,0,0,0,0,0,0,0],"split_type":[0,0,0,0,0,0,0,0,0,0,0,0,0,0,0,0,0,0,0,0,0,0,0,0,0,0,0,0,0,0,0,0,0,0,0,0,0,0,0,0,0,0,0,0,0,0,0,0,0,0,0,0,0,0,0,0,0,0,0,0,0,0,0,0,0,0,0,0,0,0,0,0,0,0,0,0,0,0,0,0,0,0,0,0,0,0,0,0,0],"sum_hessian":[1.12E3,6.56E2,4.64E2,3.71E2,2.85E2,2.4E1,4.4E2,3.29E2,4.2E1,2.38E2,4.7E1,5E0,1.9E1,4.23E2,1.7E1,9.5E1,2.34E2,1.2E1,3E1,8.8E1,1.5E2,3.7E1,1E1,1.3E1,6E0,2.31E2,1.92E2,5E0,1.2E1,8.3E1,1.2E1,4.5E1,1.89E2,8E0,4E0,1.5E1,1.5E1,3.4E1,5.4E1,2.5E1,1.25E2,2.2E1,1.5E1,2E0,8E0,6E0,7E0,1.58E2,7.3E1,6.6E1,1.26E2,6.1E1,2.2E1,5E0,7E0,2E1,2.5E1,2.5E1,1.64E2,1E0,7E0,3E0,1.2E1,5E0,1E1,6E0,2.8E1,2.8E1,2.6E1,1.3E1,1.2E1,7.6E1,4.9E1,8E0,1.4E1,8E0,7E0,5E0,1E0,6E0,1E0,1.45E2,1.3E1,5.8E1,1.5E1,2.9E1,3.7E1,4.3E1,8.3E1],"tree_param":{"num_deleted":"0","num_feature":"4","num_nodes":"89","size_leaf_vector":"1"}},{"base_weights":[4.7994256E-3,-2.263806E-2,6.606528E-2,-4.3810308E-2,6.811012E-2,3.1401448E-2,2.3135059E-1,-2.758702E-3,-1.0814116E-1,-2.6605908E-2,1.8475564E-1,-6.0345057E-2,6.576608E-2,2.9847565E-1,2.0154572E-1,-3.866649E-2,7.7830695E-2,-3.7877318E-1,-3.5043184E-2,-4.3001566E-3,-3.2373562E-2,3.393209E-1,8.835357E-2,1.9154017E-1,-1.3781185E-1,1.3592546E-1,1.097256E-2,2.7388254E-1,5.7608467E-2,5.9378743E-2,-6.860885E-2,-5.057371E-3,2.142479E-1,5.596693E-2,-6.5223473E-1,-1.9308637E-1,-2.2625241E-2,2.6870655E-2,-1.8355904E-2,-5.1504962E-2,-1.9918475E-2,1.2641548E-1,7.0377326E-1,-4.9320856E-1,2.3969784E-1,-3.728728E-2,1.3498078E-1,-2.644226E-1,-6.4730644E-2,3.6245022E-2,3.62472E-1,-2.9878153E-2,3.463613E-1,-1.6129812E-2,3.4924477E-1,-2.380147E-1,2.224211E-1,-7.5582103E-3,9.281577E-2,-1.5434296E-1,-1.783204E-2,2.3170784E-2,-7.5501345E-2,3.8199313E-3,1.12485126E-1,8.545319E-3,2.6833616E-2,-3.0417937E-1,-1.3252187E-1,1.6215019E-3,-8.1907034E-2,-3.1234767E-2,1.292072E-3,1.3205738E-2,-8.830756E-3,-9.898136E-3,-1.5249011E-3,-1.7106347E-2,-1.06088165E-2,-4.8536737E-3,-1.1710834E-2,-4.9422197E-3,1.4179356E-1,2.2259954E-1,5.9695818E-2,-3.1688806E-1,-8.723588E-2,-4.0409416E-2,9.742086E-2,-3.450411E-2,1.1099654E-1,-1.1683237E-1,-1.2170665E-2,6.411374E-3,-1.0910352E-1,6.993184E-2,-3.0291837E-2,2.4359338E-1,-4.35097E-2,8.175066E-3,-5.76105E-2,6.1282314E-2,1.844965E-1,-8.1829675E-2,1.7641906E-1,8.121221E-2,1.5334398E-1,-1.3150921E-1,-4.403098E-2,1.603576E-1,1.3238068E-2],"categories":[],"categories_nodes":[],"categories_segments":[],"categories_sizes":[],"default_left":[0,0,0,0,0,0,0,0,0,0,0,0,0,0,0,0,0,0,0,0,0,0,0,0,0,0,0,0,0,0,0,0,0,0,0,0,0,0,0,0,0,0,0,0,0,0,0,0,0,0,0,0,0,0,0,0,0,0,0,0,0,0,0,0,0,0,0,0,0,0,0,0,0,0,0,0,0,0,0,0,0,0,0,0,0,0,0,0,0,0,0,0,0,0,0,0,0,0,0,0,0,0,0,0,0,0,0,0,0,0,0],"id":20,"left_children":[1,3,5,7,9,11,13,15,17,19,21,23,25,-1,27,29,31,33,35,37,39,41,43,45,47,49,51,53,55,57,59,61,63,65,67,69,71,73,75,77,79,81,83,85,87,89,-1,91,93,95,97,99,101,103,105,107,109,-1,-1,-1,-1,-1,-1,-1,-1,-1,-1,-1,-1,-1,-1,-1,-1,-1,-1,-1,-1,-1,-1,-1,-1,-1,-1,-1,-1,-1,-1,-1,-1,-1,-1,-1,-1,-1,-1,-1,-1,-1,-1,-1,-1,-1,-1,-1,-1,-1,-1,-1,-1,-1,-1],"loss_changes":[1.8858752E0,1.4920249E0,1.980845E0,1.6608179E0,1.6290008E0,9.119852E-1,1.1649611E0,1.1171174E0,4.833477E0,1.0410249E-2,9.534471E-1,1.567903E0,8.058073E-1,0E0,5.985279E-1,7.8790724E-1,1.3466592E0,6.218508E0,3.7637028E-1,8.379558E-3,1.4462516E-2,1.8508794E0,3.8148973E0,1.1402097E0,5.4730856E-1,2.0644298E0,1.6407521E0,8.5801625E-1,1.0761106E0,1.339854E0,8.07466E-1,1.5415379E0,1.4525027E0,1.6773738E-2,1.9884377E0,2.2361112E-1,3.9769244E-1,7.0891636E-3,2.3580254E-3,2.0965934E-4,2.2995938E-3,8.488207E-1,2.601242E-2,7.18673E-1,1.1262335E0,3.9077064E-1,0E0,5.9989023E-1,1.0373709E0,1.7793727E0,6.5052977E0,9.9645495E-1,3.7056267E-1,1.5559223E0,2.5580478E-1,8.190799E-2,7.5546235E-1,0E0,0E0,0E0,0E0,0E0,0E0,0E0,0E0,0E0,0E0,0E0,0E0,0E0,0E0,0E0,0E0,0E0,0E0,0E0,0E0,0E0,0E0,0E0,0E0,0E0,0E0,0E0,0E0,0E0,0E0,0E0,0E0,0E0,0E0,0E0,0E0,0E0,0E0,0E0,0E0,0E0,0E0,0E0,0E0,0E0,0E0,0E0,0E0,0E0,0E0,0E0,0E0,0E0,0E0],"parents":[2147483647,0,0,1,1,2,2,3,3,4,4,5,5,6,6,7,7,8,8,9,9,10,10,11,11,12,12,14,14,15,15,16,16,17,17,18,18,19,19,20,20,21,21,22,22,23,23,24,24,25,25,26,26,27,27,28,28,29,29,30,30,31,31,32,32,33,33,34,34,35,35,36,36,37,37,38,38,39,39,40,40,41,41,42,42,43,43,44,44,45,45,47,47,48,48,49,49,50,50,51,51,52,52,53,53,54,54,55,55,56,56],"right_children":[2,4,6,8,10,12,14,16,18,20,22,24,26,-1,28,30,32,34,36,38,40,42,44,46,48,50,52,54,56,58,60,62,64,66,68,70,72,74,76,78,80,82,84,86,88,90,-1,92,94,96,98,100,102,104,106,108,110,-1,-1,-1,-1,-1,-1,-1,-1,-1,-1,-1,-1,-1,-1,-1,-1,-1,-1,-1,-1,-1,-1,-1,-1,-1,-1,-1,-1,-1,-1,-1,-1,-1,-1,-1,-1,-1,-1,-1,-1,-1,-1,-1,-1,-1,-1,-1,-1,-1,-1,-1,-1,-1,-1],"split_conditions":[2E0,5E0,1E1,0E0,1E0,1E0,-1.15E2,8E0,1E0,3E0,1.5E1,-3E0,5E0,2.9847565E-1,4E0,-4.9E1,-3E0,1E0,1E0,1E0,1E0,2E0,3.5E1,5E0,1E0,3E0,7E1,-1.9E1,5E0,-7E1,-4.6E1,-4E0,1E0,2E0,6E0,1E0,2E0,9.3E1,1E0,7E0,1.1E1,7E0,1.1E1,1.7E1,2E0,-4E0,1.3498078E-1,7E0,8E0,-3E0,1.4E1,4E0,8E0,2E0,2E0,1E0,4E1,-7.5582103E-3,9.281577E-2,-1.5434296E-1,-1.783204E-2,2.3170784E-2,-7.5501345E-2,3.8199313E-3,1.12485126E-1,8.545319E-3,2.6833616E-2,-3.0417937E-1,-1.3252187E-1,1.6215019E-3,-8.1907034E-2,-3.1234767E-2,1.292072E-3,1.3205738E-2,-8.830756E-3,-9.898136E-3,-1.5249011E-3,-1.7106347E-2,-1.06088165E-2,-4.8536737E-3,-1.1710834E-2,-4.9422197E-3,1.4179356E-1,2.2259954E-1,5.9695818E-2,-3.1688806E-1,-8.723588E-2,-4.0409416E-2,9.742086E-2,-3.450411E-2,1.1099654E-1,-1.1683237E-1,-1.2170665E-2,6.411374E-3,-1.0910352E-1,6.993184E-2,-3.0291837E-2,2.4359338E-1,-4.35097E-2,8.175066E-3,-5.76105E-2,6.1282314E-2,1.844965E-1,-8.1829675E-2,1.7641906E-1,8.121221E-2,1.5334398E-1,-1.3150921E-1,-4.403098E-2,1.603576E-1,1.3238068E-2],"split_indices":[0,2,3,2,0,1,2,3,2,3,2,2,3,0,2,2,2,0,3,1,1,1,2,3,2,2,2,2,2,2,2,2,0,1,3,0,2,2,3,3,3,2,3,2,3,2,0,3,3,2,2,2,3,1,2,1,2,0,0,0,0,0,0,0,0,0,0,0,0,0,0,0,0,0,0,0,0,0,0,0,0,0,0,0,0,0,0,0,0,0,0,0,0,0,0,0,0,0,0,0,0,0,0,0,0,0,0,0,0,0,0],"split_type":[0,0,0,0,0,0,0,0,0,0,0,0,0,0,0,0,0,0,0,0,0,0,0,0,0,0,0,0,0,0,0,0,0,0,0,0,0,0,0,0,0,0,0,0,0,0,0,0,0,0,0,0,0,0,0,0,0,0,0,0,0,0,0,0,0,0,0,0,0,0,0,0,0,0,0,0,0,0,0,0,0,0,0,0,0,0,0,0,0,0,0,0,0,0,0,0,0,0,0,0,0,0,0,0,0,0,0,0,0,0,0],"sum_hessian":[1.12E3,7.74E2,3.46E2,6.28E2,1.46E2,2.87E2,5.9E1,3.84E2,2.44E2,8.1E1,6.5E1,7.8E1,2.09E2,1E0,5.8E1,2.66E2,1.18E2,5.1E1,1.93E2,1.7E1,6.4E1,2.4E1,4.1E1,1.8E1,6E1,9.1E1,1.18E2,3.8E1,2E1,6.2E1,2.04E2,7.4E1,4.4E1,2E1,3.1E1,1.3E1,1.8E2,5E0,1.2E1,2.4E1,4E1,1.6E1,8E0,8E0,3.3E1,1E1,8E0,2.1E1,3.9E1,6.4E1,2.7E1,1.06E2,1.2E1,8E0,3E1,7E0,1.3E1,4.7E1,1.5E1,3E0,2.01E2,5.6E1,1.8E1,2E1,2.4E1,1.2E1,8E0,1E1,2.1E1,4E0,9E0,4.4E1,1.36E2,4E0,1E0,5E0,7E0,1.6E1,8E0,3.5E1,5E0,1.2E1,4E0,7E0,1E0,1E0,7E0,6E0,2.7E1,9E0,1E0,1.3E1,8E0,3.1E1,8E0,2.6E1,3.8E1,1.4E1,1.3E1,7.9E1,2.7E1,9E0,3E0,6E0,2E0,2.2E1,8E0,1E0,6E0,4E0,9E0],"tree_param":{"num_deleted":"0","num_feature":"4","num_nodes":"111","size_leaf_vector":"1"}},{"base_weights":[3.8304706E-3,2.870529E-1,-1.0692039E-5,1.5697066E-1,2.265175E-1,-7.9272315E-2,1.5465429E-2,-4.501538E-2,2.2206803E-1,-1.262329E-1,4.6289116E-2,-6.6475295E-3,6.381762E-2,-2.3514898E-2,-7.7651795E-3,9.617478E-2,3.0888367E-2,-3.3498444E-2,-2.4766426E-1,2.1389379E-1,-9.3039334E-2,-1.6807575E-2,7.588895E-2,4.6594426E-2,1.8079324E-1,-2.8338088E-3,-6.6052214E-4,-1.7168216E-1,1.5574761E-2,2.1530837E-2,-4.052928E-1,1.3928437E-1,2.7829516E-1,-4.9375787E-1,-4.3224137E-2,-1.2488079E-2,-2.5658664E-1,-2.6745442E-2,2.3079573E-1,1.2559451E-1,1.3602157E-2,-2.0339272E-3,2.4858235E-1,-7.4477997E-3,-1.3226055E-1,7.384065E-2,-2.657008E-2,2.1132007E-2,-1.0134596E-2,-2.73274E-1,-8.214148E-2,7.2131706E-3,8.255056E-2,-2.1803284E-2,-2.0038778E-1,3.6496073E-2,-2.9631041E-2,-4.4255583E-3,1.8760529E-1,1.834783E-3,-1.5615372E-1,-9.909641E-3,-4.8536416E-3,1.5049389E-1,2.9211963E-2,6.0949374E-2,-1.0325755E-1,-4.3352223E-3,9.114025E-2,-1.0282975E-1,3.353081E-2,1.2601012E-1,5.027181E-2],"categories":[],"categories_nodes":[],"categories_segments":[],"categories_sizes":[],"default_left":[0,0,0,0,0,0,0,0,0,0,0,0,0,0,0,0,0,0,0,0,0,0,0,0,0,0,0,0,0,0,0,0,0,0,0,0,0,0,0,0,0,0,0,0,0,0,0,0,0,0,0,0,0,0,0,0,0,0,0,0,0,0,0,0,0,0,0,0,0,0,0,0,0],"id":21,"left_children":[1,3,5,7,-1,9,11,13,15,17,19,21,23,-1,25,-1,-1,27,29,31,33,35,37,39,41,-1,-1,43,45,47,49,51,-1,53,55,57,59,61,63,65,67,69,71,-1,-1,-1,-1,-1,-1,-1,-1,-1,-1,-1,-1,-1,-1,-1,-1,-1,-1,-1,-1,-1,-1,-1,-1,-1,-1,-1,-1,-1,-1],"loss_changes":[1.2195429E0,7.946658E-1,1.3591413E0,1.8093035E-1,0E0,1.0730988E0,9.915819E-1,4.363142E-3,8.432996E-2,1.4781387E0,1.1875055E0,5.3544736E-1,5.77852E-1,0E0,7.256196E-6,0E0,0E0,5.1803887E-1,2.4273975E0,1.0956112E0,5.375902E-1,5.850873E-1,1.1190863E0,6.6292155E-1,4.590721E-1,0E0,0E0,7.796884E-1,1.3904254E0,6.189632E-2,2.1439748E0,3.3788973E-1,0E0,1.715126E-1,2.5013146E-1,8.163809E-1,6.9652325E-1,2.322035E-3,9.630047E-1,2.8030298E0,1.4778954E0,4.648512E-1,3.0462265E-1,0E0,0E0,0E0,0E0,0E0,0E0,0E0,0E0,0E0,0E0,0E0,0E0,0E0,0E0,0E0,0E0,0E0,0E0,0E0,0E0,0E0,0E0,0E0,0E0,0E0,0E0,0E0,0E0,0E0,0E0],"parents":[2147483647,0,0,1,1,2,2,3,3,5,5,6,6,7,7,8,8,9,9,10,10,11,11,12,12,14,14,17,17,18,18,19,19,20,20,21,21,22,22,23,23,24,24,27,27,28,28,29,29,30,30,31,31,33,33,34,34,35,35,36,36,37,37,38,38,39,39,40,40,41,41,42,42],"right_children":[2,4,6,8,-1,10,12,14,16,18,20,22,24,-1,26,-1,-1,28,30,32,34,36,38,40,42,-1,-1,44,46,48,50,52,-1,54,56,58,60,62,64,66,68,70,72,-1,-1,-1,-1,-1,-1,-1,-1,-1,-1,-1,-1,-1,-1,-1,-1,-1,-1,-1,-1,-1,-1,-1,-1,-1,-1,-1,-1,-1,-1],"split_conditions":[-1.13E2,9E0,2E0,1E0,2.265175E-1,4E0,2E0,-1.17E2,2E0,-1E0,1.4E1,3.5E1,1.1E1,-2.3514898E-2,1E0,9.617478E-2,3.0888367E-2,-6.6E1,1E0,1.3E1,1.8E1,2.2E1,1E0,5E0,1E0,-2.8338088E-3,-6.6052214E-4,-7.9E1,-1.2E1,2E0,1E0,2E0,2.7829516E-1,1E0,4.2E1,2.1E1,1E0,2E0,5E0,9E0,8E1,-1.9E1,2E0,-7.4477997E-3,-1.3226055E-1,7.384065E-2,-2.657008E-2,2.1132007E-2,-1.0134596E-2,-2.73274E-1,-8.214148E-2,7.2131706E-3,8.255056E-2,-2.1803284E-2,-2.0038778E-1,3.6496073E-2,-2.9631041E-2,-4.4255583E-3,1.8760529E-1,1.834783E-3,-1.5615372E-1,-9.909641E-3,-4.8536416E-3,1.5049389E-1,2.9211963E-2,6.0949374E-2,-1.0325755E-1,-4.3352223E-3,9.114025E-2,-1.0282975E-1,3.353081E-2,1.2601012E-1,5.027181E-2],"split_indices":[2,3,3,0,0,2,0,2,3,2,2,2,3,0,1,0,0,2,0,2,2,2,0,3,1,0,0,2,2,1,1,1,0,3,2,2,0,1,3,2,2,2,1,0,0,0,0,0,0,0,0,0,0,0,0,0,0,0,0,0,0,0,0,0,0,0,0,0,0,0,0,0,0],"split_type":[0,0,0,0,0,0,0,0,0,0,0,0,0,0,0,0,0,0,0,0,0,0,0,0,0,0,0,0,0,0,0,0,0,0,0,0,0,0,0,0,0,0,0,0,0,0,0,0,0,0,0,0,0,0,0,0,0,0,0,0,0,0,0,0,0,0,0,0,0,0,0,0,0],"sum_hessian":[1.12E3,1.4E1,1.106E3,1.2E1,2E0,1.8E2,9.26E2,3E0,9E0,1.31E2,4.9E1,6.36E2,2.9E2,1E0,2E0,4E0,5E0,7.5E1,5.6E1,2.2E1,2.7E1,5.67E2,6.9E1,2.54E2,3.6E1,1E0,1E0,1.9E1,5.6E1,2.1E1,3.5E1,2.1E1,1E0,2E0,2.5E1,5.58E2,9E0,4.2E1,2.7E1,7.4E1,1.8E2,1E1,2.6E1,1.3E1,6E0,1.7E1,3.9E1,1.1E1,1E1,6E0,2.9E1,1.2E1,9E0,1E0,1E0,6E0,1.9E1,5.57E2,1E0,5E0,4E0,2.5E1,1.7E1,8E0,1.9E1,6.4E1,1E1,1.65E2,1.5E1,2E0,8E0,7E0,1.9E1],"tree_param":{"num_deleted":"0","num_feature":"4","num_nodes":"73","size_leaf_vector":"1"}},{"base_weights":[3.0268747E-3,-2.1002274E-2,3.5870463E-2,-7.219037E-2,5.478033E-3,2.1856911E-1,2.477954E-2,-1.2000155E-1,4.1911665E-2,3.446875E-2,-5.440622E-2,-4.3396097E-2,3.3115426E-1,-1.6335374E-1,2.8553298E-2,4.4848953E-4,-1.893561E-1,-9.3791865E-2,1.5760326E-1,6.873109E-3,3.6906707E-1,2.4784459E-1,-1.01032116E-1,-6.97101E-2,-8.402872E-3,1.0395922E-1,4.2801666E-1,1.0112897E-2,1.1819588E-1,-5.7588708E-2,3.2509875E-2,5.0718307E-2,-2.6267755E-1,4.880206E-2,-1.8641971E-1,-1.5099515E-2,2.558744E-1,4.6599265E-2,-1.2313421E-1,-7.5918436E-2,7.4621487E-1,-4.3362062E-2,5.142668E-1,-3.0948284E-1,-3.0486586E-3,-5.614438E-4,-2.5860569E-2,-1.4731241E-3,-5.4182797E-3,4.6029665E-2,5.3483583E-2,5.073853E-2,4.5971194E-1,2.5539849E-2,-1.08156405E-1,-1.836145E-2,2.0765416E-1,7.536501E-3,-3.0221492E-2,2.4612838E-2,-3.4484998E-3,-3.386928E-2,7.6303795E-2,-1.3021362E-1,-1.485932E-2,-4.551094E-2,1.199853E-1,-1.3210034E-1,-4.824675E-4,-6.9637764E-3,3.2958933E-3,1.5369652E-1,2.5484314E-2,-1.2110125E-2,5.6075074E-2,-6.5946884E-2,1.6732505E-3,-2.5298677E-3,-3.9225273E-2,3.276707E-1,1.0290708E-1,-1.951347E-2,-8.943222E-3,2.0824996E-1,5.8660127E-2,9.255039E-3,-1.8079975E-1,2.3233142E-2,-3.375695E-2,3.3116203E-6,-5.914574E-4,2.9722596E-2,-1.9332506E-2,2.1972658E-1,1.0775963E-1,1.1999889E-3,7.2026215E-2,1.06745146E-1,-8.362998E-2,-1.2995305E-2,-4.242153E-3,1.348483E-1,2.6340725E-2],"categories":[],"categories_nodes":[],"categories_segments":[],"categories_sizes":[],"default_left":[0,0,0,0,0,0,0,0,0,0,0,0,0,0,0,0,0,0,0,0,0,0,0,0,0,0,0,0,0,0,0,0,0,0,0,0,0,0,0,0,0,0,0,0,0,0,0,0,0,0,0,0,0,0,0,0,0,0,0,0,0,0,0,0,0,0,0,0,0,0,0,0,0,0,0,0,0,0,0,0,0,0,0,0,0,0,0,0,0,0,0,0,0,0,0,0,0,0,0,0,0,0,0],"id":22,"left_children":[1,3,5,7,9,11,13,15,17,19,21,23,25,-1,27,29,31,33,35,37,39,41,43,45,47,49,51,53,55,57,59,61,63,65,67,69,71,73,75,77,79,81,83,85,87,-1,-1,89,-1,-1,91,-1,93,95,97,99,101,-1,-1,-1,-1,-1,-1,-1,-1,-1,-1,-1,-1,-1,-1,-1,-1,-1,-1,-1,-1,-1,-1,-1,-1,-1,-1,-1,-1,-1,-1,-1,-1,-1,-1,-1,-1,-1,-1,-1,-1,-1,-1,-1,-1,-1,-1],"loss_changes":[8.854505E-1,8.7874424E-1,9.550488E-1,1.2106626E0,7.4492073E-1,8.106923E-1,9.780177E-1,1.303271E0,1.050966E0,2.6659317E0,1.9980204E0,7.701542E-3,3.736303E-1,0E0,7.360629E-1,1.0979586E-1,1.7559803E0,4.1855088E-1,6.148446E-1,1.3898752E0,3.748808E0,1.4963939E0,2.4908729E0,5.432576E-3,3.0803363E-4,9.27417E-3,2.8921604E-2,6.7966473E-1,9.32243E-1,7.747801E-2,8.377129E-2,8.283165E-1,2.7545118E0,9.759672E-1,8.908928E-1,3.2179274E-3,9.6465445E-1,2.5213451E0,7.852592E-1,3.960178E-2,1.2994876E0,9.992737E-4,4.3766713E-1,3.9100065E0,7.4891144E-1,0E0,0E0,2.9805933E-6,0E0,0E0,3.3266664E-2,0E0,3.843522E-2,1.519457E0,3.50301E0,2.6529683E-3,1.2938417E0,0E0,0E0,0E0,0E0,0E0,0E0,0E0,0E0,0E0,0E0,0E0,0E0,0E0,0E0,0E0,0E0,0E0,0E0,0E0,0E0,0E0,0E0,0E0,0E0,0E0,0E0,0E0,0E0,0E0,0E0,0E0,0E0,0E0,0E0,0E0,0E0,0E0,0E0,0E0,0E0,0E0,0E0,0E0,0E0,0E0,0E0],"parents":[2147483647,0,0,1,1,2,2,3,3,4,4,5,5,6,6,7,7,8,8,9,9,10,10,11,11,12,12,14,14,15,15,16,16,17,17,18,18,19,19,20,20,21,21,22,22,23,23,24,24,25,25,26,26,27,27,28,28,29,29,30,30,31,31,32,32,33,33,34,34,35,35,36,36,37,37,38,38,39,39,40,40,41,41,42,42,43,43,44,44,47,47,50,50,52,52,53,53,54,54,55,55,56,56],"right_children":[2,4,6,8,10,12,14,16,18,20,22,24,26,-1,28,30,32,34,36,38,40,42,44,46,48,50,52,54,56,58,60,62,64,66,68,70,72,74,76,78,80,82,84,86,88,-1,-1,90,-1,-1,92,-1,94,96,98,100,102,-1,-1,-1,-1,-1,-1,-1,-1,-1,-1,-1,-1,-1,-1,-1,-1,-1,-1,-1,-1,-1,-1,-1,-1,-1,-1,-1,-1,-1,-1,-1,-1,-1,-1,-1,-1,-1,-1,-1,-1,-1,-1,-1,-1,-1,-1],"split_conditions":[2E0,4E0,-7.5E1,4E0,3E0,1E0,-7.3E1,1E0,1E0,2E0,5E0,-1.09E2,2E0,-1.6335374E-1,5E0,-4E0,-2.4E1,9E0,1E0,0E0,1E0,1E0,5E0,2E0,8E0,-1.14E2,-1.16E2,4E0,1E0,-7.6E1,2E0,-7.6E1,2E0,3E0,6.2E1,7.6E1,1.4E1,-3E0,1E0,7E0,1E0,4E0,1.1E1,1E0,5.8E1,-5.614438E-4,-2.5860569E-2,-1.03E2,-5.4182797E-3,4.6029665E-2,2E0,5.073853E-2,-1.15E2,3E0,4E0,2E0,1.3E1,7.536501E-3,-3.0221492E-2,2.4612838E-2,-3.4484998E-3,-3.386928E-2,7.6303795E-2,-1.3021362E-1,-1.485932E-2,-4.551094E-2,1.199853E-1,-1.3210034E-1,-4.824675E-4,-6.9637764E-3,3.2958933E-3,1.5369652E-1,2.5484314E-2,-1.2110125E-2,5.6075074E-2,-6.5946884E-2,1.6732505E-3,-2.5298677E-3,-3.9225273E-2,3.276707E-1,1.0290708E-1,-1.951347E-2,-8.943222E-3,2.0824996E-1,5.8660127E-2,9.255039E-3,-1.8079975E-1,2.3233142E-2,-3.375695E-2,3.3116203E-6,-5.914574E-4,2.9722596E-2,-1.9332506E-2,2.1972658E-1,1.0775963E-1,1.1999889E-3,7.2026215E-2,1.06745146E-1,-8.362998E-2,-1.2995305E-2,-4.242153E-3,1.348483E-1,2.6340725E-2],"split_indices":[1,3,2,2,2,0,2,0,1,2,3,2,3,0,2,2,2,2,0,2,0,0,2,3,3,2,2,2,0,2,3,2,0,3,2,2,2,2,2,3,1,2,2,0,2,0,0,2,0,0,0,0,2,2,3,3,2,0,0,0,0,0,0,0,0,0,0,0,0,0,0,0,0,0,0,0,0,0,0,0,0,0,0,0,0,0,0,0,0,0,0,0,0,0,0,0,0,0,0,0,0,0,0],"split_type":[0,0,0,0,0,0,0,0,0,0,0,0,0,0,0,0,0,0,0,0,0,0,0,0,0,0,0,0,0,0,0,0,0,0,0,0,0,0,0,0,0,0,0,0,0,0,0,0,0,0,0,0,0,0,0,0,0,0,0,0,0,0,0,0,0,0,0,0,0,0,0,0,0,0,0,0,0,0,0,0,0,0,0,0,0,0,0,0,0,0,0,0,0,0,0,0,0,0,0,0,0,0,0],"sum_hessian":[1.12E3,6.47E2,4.73E2,2.2E2,4.27E2,2.6E1,4.47E2,1.55E2,6.5E1,2.88E2,1.39E2,8E0,1.8E1,2E0,4.45E2,5.7E1,9.8E1,3E1,3.5E1,2.67E2,2.1E1,1.8E1,1.21E2,4E0,4E0,6E0,1.2E1,3.7E2,7.5E1,2E1,3.7E1,2.3E1,7.5E1,1.2E1,1.8E1,1.3E1,2.2E1,2.05E2,6.2E1,1E1,1.1E1,9E0,9E0,3.8E1,8.3E1,1E0,3E0,3E0,1E0,2E0,4E0,2E0,1E1,3.28E2,4.2E1,3E1,4.5E1,7E0,1.3E1,1.7E1,2E1,1.3E1,1E1,4.1E1,3.4E1,8E0,4E0,7E0,1.1E1,1E1,3E0,8E0,1.4E1,1.27E2,7.8E1,3.5E1,2.7E1,5E0,5E0,5E0,6E0,2E0,7E0,5E0,4E0,1.8E1,2E1,4.8E1,3.5E1,1E0,2E0,3E0,1E0,1E0,9E0,2.99E2,2.9E1,1.1E1,3.1E1,3E0,2.7E1,1.4E1,3.1E1],"tree_param":{"num_deleted":"0","num_feature":"4","num_nodes":"103","size_leaf_vector":"1"}},{"base_weights":[2.9370817E-3,-1.2937211E-2,4.702245E-2,-3.085138E-2,1.1584266E-2,3.5860354E-1,3.3784706E-2,-8.134679E-2,-1.0055766E-2,7.404765E-2,-1.2409932E-2,-4.813323E-3,4.3513757E-1,2.4810804E-2,2.789833E-1,3.4508128E-2,-2.0636263E-1,-7.450286E-2,4.7286406E-2,1.562883E-1,2.8235498E-3,-6.2074672E-2,7.084379E-2,5.934849E-1,2.8249088E-1,-9.952699E-2,3.699908E-2,7.27806E-2,1.4118896E-1,-5.4719742E-2,2.0801443E-1,-4.1534252E-2,-6.5275466E-1,-1.9979472E-1,-1.0575164E-2,2.445146E-1,-3.2582995E-2,-5.172272E-3,2.6412025E-1,1.7732419E-1,-9.990694E-2,-1.1331581E-1,2.669533E-2,-8.116604E-3,1.170393E-1,4.4484332E-2,2.0773774E-1,1.3234329E-1,1.3157196E-1,2.1351758E-2,-5.8731234E-1,3.8979945E-1,2.388805E-2,-6.2416088E-2,1.1231461E-1,5.2001074E-2,-2.9056877E-2,-9.946462E-3,9.7036846E-2,8.869767E-2,-2.318483E-2,4.4609644E-2,-2.9173332E-1,2.7145615E-2,-9.412832E-2,6.638279E-2,-2.0928884E-2,-1.5108312E-2,1.291157E-1,-9.092695E-2,4.2040553E-3,3.5563767E-2,-5.7030898E-2,-1.3157456E-2,1.1883112E-1,-9.756449E-3,8.784591E-2,-1.0910535E-1,-9.118335E-3,-1.945373E-2,-7.1210474E-2,3.5596825E-2,-6.835956E-2,-1.6210143E-2,3.4866252E-3,5.752978E-2,-3.45323E-3,5.7933427E-2,8.238221E-3,-1.6333943E-2,6.597653E-2,4.907799E-2,-2.4478112E-1,-8.21449E-3,1.8088609E-1,-9.7949415E-2,8.874253E-3,-5.4508257E-3,-3.5910416E-2],"categories":[],"categories_nodes":[],"categories_segments":[],"categories_sizes":[],"default_left":[0,0,0,0,0,0,0,0,0,0,0,0,0,0,0,0,0,0,0,0,0,0,0,0,0,0,0,0,0,0,0,0,0,0,0,0,0,0,0,0,0,0,0,0,0,0,0,0,0,0,0,0,0,0,0,0,0,0,0,0,0,0,0,0,0,0,0,0,0,0,0,0,0,0,0,0,0,0,0,0,0,0,0,0,0,0,0,0,0,0,0,0,0,0,0,0,0,0,0],"id":23,"left_children":[1,3,5,7,9,11,13,15,17,19,21,-1,23,25,27,29,31,33,35,37,39,41,43,45,47,49,51,53,-1,55,57,59,61,63,65,67,69,71,73,75,77,79,81,83,85,-1,-1,87,-1,89,91,93,95,97,-1,-1,-1,-1,-1,-1,-1,-1,-1,-1,-1,-1,-1,-1,-1,-1,-1,-1,-1,-1,-1,-1,-1,-1,-1,-1,-1,-1,-1,-1,-1,-1,-1,-1,-1,-1,-1,-1,-1,-1,-1,-1,-1,-1,-1],"loss_changes":[7.851111E-1,3.6276495E-1,1.2129002E0,5.000715E-1,5.2398574E-1,3.5106122E-1,6.223892E-1,2.0203557E0,1.2563099E0,5.677379E-1,1.0504955E0,0E0,7.405782E-2,4.234658E-1,3.6092776E-1,1.1415391E0,4.9026194E0,1.2794263E0,2.8434167E0,7.8484344E-1,9.678223E-1,7.262646E-1,3.474735E-1,7.357621E-2,1.0600549E-1,1.4866122E0,1.1609592E0,2.6802054E-1,0E0,4.8765486E-1,7.067491E-1,6.255569E-1,4.756498E0,1.8148274E0,1.4837716E0,2.8717344E0,1.6302503E0,4.5724237E-1,1.11487E0,4.9424767E-1,6.1236435E-1,5.919032E-1,1.4082026E0,3.325642E-2,5.7857424E-1,0E0,0E0,2.6564598E-2,0E0,3.2805032E-1,9.918597E-1,8.168249E-1,4.983537E-1,1.0498514E-2,0E0,0E0,0E0,0E0,0E0,0E0,0E0,0E0,0E0,0E0,0E0,0E0,0E0,0E0,0E0,0E0,0E0,0E0,0E0,0E0,0E0,0E0,0E0,0E0,0E0,0E0,0E0,0E0,0E0,0E0,0E0,0E0,0E0,0E0,0E0,0E0,0E0,0E0,0E0,0E0,0E0,0E0,0E0,0E0,0E0],"parents":[2147483647,0,0,1,1,2,2,3,3,4,4,5,5,6,6,7,7,8,8,9,9,10,10,12,12,13,13,14,14,15,15,16,16,17,17,18,18,19,19,20,20,21,21,22,22,23,23,24,24,25,25,26,26,27,27,29,29,30,30,31,31,32,32,33,33,34,34,35,35,36,36,37,37,38,38,39,39,40,40,41,41,42,42,43,43,44,44,47,47,49,49,50,50,51,51,52,52,53,53],"right_children":[2,4,6,8,10,12,14,16,18,20,22,-1,24,26,28,30,32,34,36,38,40,42,44,46,48,50,52,54,-1,56,58,60,62,64,66,68,70,72,74,76,78,80,82,84,86,-1,-1,88,-1,90,92,94,96,98,-1,-1,-1,-1,-1,-1,-1,-1,-1,-1,-1,-1,-1,-1,-1,-1,-1,-1,-1,-1,-1,-1,-1,-1,-1,-1,-1,-1,-1,-1,-1,-1,-1,-1,-1,-1,-1,-1,-1,-1,-1,-1,-1,-1,-1],"split_conditions":[9E0,2E0,-8.2E1,-3E0,-3E0,1E0,8.2E1,1E0,1E0,4E0,6E0,-4.813323E-3,-1.08E2,-3.8E1,2E0,-1.4E1,-4E0,1E0,0E0,-4.8E1,-5E1,3E0,1E0,2E0,-9E1,-4.7E1,-2.2E1,1.11E2,1.4118896E-1,1E0,1E0,-1.11E2,1E0,1E0,3E0,1E0,1E0,-8.3E1,1E0,1E0,-3.9E1,2E0,5E0,0E0,4E0,4.4484332E-2,2.0773774E-1,-9.9E1,1.3157196E-1,2E0,1E0,1E0,-1.9E1,1.04E2,1.1231461E-1,5.2001074E-2,-2.9056877E-2,-9.946462E-3,9.7036846E-2,8.869767E-2,-2.318483E-2,4.4609644E-2,-2.9173332E-1,2.7145615E-2,-9.412832E-2,6.638279E-2,-2.0928884E-2,-1.5108312E-2,1.291157E-1,-9.092695E-2,4.2040553E-3,3.5563767E-2,-5.7030898E-2,-1.3157456E-2,1.1883112E-1,-9.756449E-3,8.784591E-2,-1.0910535E-1,-9.118335E-3,-1.945373E-2,-7.1210474E-2,3.5596825E-2,-6.835956E-2,-1.6210143E-2,3.4866252E-3,5.752978E-2,-3.45323E-3,5.7933427E-2,8.238221E-3,-1.6333943E-2,6.597653E-2,4.907799E-2,-2.4478112E-1,-8.21449E-3,1.8088609E-1,-9.7949415E-2,8.874253E-3,-5.4508257E-3,-3.5910416E-2],"split_indices":[3,1,2,2,2,0,2,1,1,3,3,0,2,2,0,2,2,2,2,2,2,2,0,0,2,2,2,2,0,3,0,2,0,0,2,0,2,2,0,0,2,0,3,2,2,0,0,2,0,0,1,0,2,2,0,0,0,0,0,0,0,0,0,0,0,0,0,0,0,0,0,0,0,0,0,0,0,0,0,0,0,0,0,0,0,0,0,0,0,0,0,0,0,0,0,0,0,0,0],"split_type":[0,0,0,0,0,0,0,0,0,0,0,0,0,0,0,0,0,0,0,0,0,0,0,0,0,0,0,0,0,0,0,0,0,0,0,0,0,0,0,0,0,0,0,0,0,0,0,0,0,0,0,0,0,0,0,0,0,0,0,0,0,0,0,0,0,0,0,0,0,0,0,0,0,0,0,0,0,0,0,0,0,0,0,0,0,0,0,0,0,0,0,0,0,0,0,0,0,0,0],"sum_hessian":[1.12E3,8.24E2,2.96E2,4.76E2,3.48E2,1.1E1,2.85E2,1.38E2,3.38E2,9.6E1,2.52E2,2E0,9E0,2.76E2,9E0,7.2E1,6.6E1,1.59E2,1.79E2,4.4E1,5.2E1,1.58E2,9.4E1,3E0,6E0,2.4E1,2.52E2,5E0,4E0,4.8E1,2.4E1,4.9E1,1.7E1,5.3E1,1.06E2,5.1E1,1.28E2,1.8E1,2.6E1,1.9E1,3.3E1,1E2,5.8E1,3.5E1,5.9E1,1E0,2E0,4E0,2E0,2E1,4E0,8E0,2.44E2,4E0,1E0,7E0,4.1E1,8E0,1.6E1,4E0,4.5E1,5E0,1.2E1,1.5E1,3.8E1,2.1E1,8.5E1,2E1,3.1E1,1.8E1,1.1E2,1.1E1,7E0,8E0,1.8E1,7E0,1.2E1,6E0,2.7E1,7.3E1,2.7E1,4.3E1,1.5E1,1E1,2.5E1,3.7E1,2.2E1,2E0,2E0,1.5E1,5E0,1E0,3E0,3E0,5E0,3E0,2.41E2,3E0,1E0],"tree_param":{"num_deleted":"0","num_feature":"4","num_nodes":"99","size_leaf_vector":"1"}},{"base_weights":[2.4939813E-3,-4.9525727E-2,1.2828566E-2,1.9448915E-1,-5.874005E-2,9.461769E-2,4.9694595E-3,-5.8117923E-3,2.3336156E-1,4.471506E-3,-9.038309E-2,-2.0310357E-2,1.6131291E-1,-1.1249179E-1,1.3817079E-2,7.105637E-3,2.705597E-1,2.2568397E-2,-2.2490753E-2,-1.429657E-1,-2.6857127E-3,7.4598338E-3,-3.3889487E-2,-7.2811946E-2,2.412215E-1,-5.493386E-2,-5.4043984E-1,3.7672114E-1,1.0583984E-2,9.117966E-2,2.0560456E-2,-5.8093693E-2,4.682324E-2,7.943349E-3,-1.0188464E-1,-3.1166151E-2,-3.6531818E-1,-1.423228E-1,6.28531E-2,2.4350084E-2,-4.5697533E-2,-6.599408E-2,-1.9732175E-2,2.1820068E-1,-2.5873014E-1,1.4844275E-1,2.930231E-1,-1.5842336E-1,8.1029E-2,-7.9187906E-1,-1.5389061E-1,-1.7862458E-2,2.7263606E-1,-7.8099235E-3,5.105241E-2,-2.6528586E-2,2.7687859E-2,3.4671817E-2,9.360124E-3,2.649996E-2,-3.7951719E-3,-3.423824E-2,-4.264155E-3,-6.897275E-2,1.0764196E-2,-1.668812E-1,-4.3879293E-2,-6.543337E-2,1.5862886E-2,4.6126068E-2,-3.0438138E-2,9.443251E-3,-1.1917632E-4,-2.4471853E-3,-1.8116705E-2,-2.228363E-2,-3.6855952E-3,-1.3752119E-3,-8.508796E-3,2.7991392E-2,9.359856E-2,-1.3341637E-1,2.5481703E-2,7.604079E-3,1.0481339E-1,1.0972168E-1,4.639412E-2,-1.4890509E-2,-1.5729639E-1,-4.153757E-2,9.3616426E-2,3.8741725E-3,-3.1933442E-1,7.954903E-2,-1.1458894E-1,9.169605E-4,-9.8481905E-3,-2.2476519E-2,1.3306899E-3,8.283644E-3,4.217855E-2],"categories":[],"categories_nodes":[],"categories_segments":[],"categories_sizes":[],"default_left":[0,0,0,0,0,0,0,0,0,0,0,0,0,0,0,0,0,0,0,0,0,0,0,0,0,0,0,0,0,0,0,0,0,0,0,0,0,0,0,0,0,0,0,0,0,0,0,0,0,0,0,0,0,0,0,0,0,0,0,0,0,0,0,0,0,0,0,0,0,0,0,0,0,0,0,0,0,0,0,0,0,0,0,0,0,0,0,0,0,0,0,0,0,0,0,0,0,0,0,0,0],"id":24,"left_children":[1,3,5,7,9,11,13,-1,15,17,19,21,23,25,27,-1,29,31,33,35,37,39,41,43,45,47,49,51,53,-1,-1,55,57,59,61,63,65,67,69,71,73,75,77,79,81,83,85,87,89,91,93,95,-1,97,99,-1,-1,-1,-1,-1,-1,-1,-1,-1,-1,-1,-1,-1,-1,-1,-1,-1,-1,-1,-1,-1,-1,-1,-1,-1,-1,-1,-1,-1,-1,-1,-1,-1,-1,-1,-1,-1,-1,-1,-1,-1,-1,-1,-1,-1,-1],"loss_changes":[6.0328734E-1,4.2963275E-1,6.011807E-1,6.27141E-2,3.604412E-1,6.3181883E-1,8.9011514E-1,0E0,4.038903E-2,3.0271497E-2,5.5297875E-1,1.1942756E-2,9.9041045E-1,1.4482199E0,9.2996246E-1,0E0,1.28804445E-2,7.510865E-2,6.1216347E-2,1.8530327E0,4.2992127E-1,1.0988992E-2,8.242603E-3,8.139188E-1,1.4394045E-1,7.7265626E-1,5.5849266E-1,1.4858437E0,5.8845305E-1,0E0,0E0,4.921902E-2,2.7541853E-2,3.257277E-2,5.891174E-3,6.8782854E-1,9.6436024E-1,2.3344037E-1,4.9355757E-1,1.599967E-3,1.1619558E-3,1.757225E-3,1.9617546E-3,4.1176796E-2,6.130488E-1,3.8689286E-1,1.849308E-1,1.2079434E0,1.2601813E0,8.911927E-1,4.835814E-1,1.6655847E-3,0E0,4.474032E-1,5.145476E-1,0E0,0E0,0E0,0E0,0E0,0E0,0E0,0E0,0E0,0E0,0E0,0E0,0E0,0E0,0E0,0E0,0E0,0E0,0E0,0E0,0E0,0E0,0E0,0E0,0E0,0E0,0E0,0E0,0E0,0E0,0E0,0E0,0E0,0E0,0E0,0E0,0E0,0E0,0E0,0E0,0E0,0E0,0E0,0E0,0E0,0E0],"parents":[2147483647,0,0,1,1,2,2,3,3,4,4,5,5,6,6,8,8,9,9,10,10,11,11,12,12,13,13,14,14,16,16,17,17,18,18,19,19,20,20,21,21,22,22,23,23,24,24,25,25,26,26,27,27,28,28,31,31,32,32,33,33,34,34,35,35,36,36,37,37,38,38,39,39,40,40,41,41,42,42,43,43,44,44,45,45,46,46,47,47,48,48,49,49,50,50,51,51,53,53,54,54],"right_children":[2,4,6,8,10,12,14,-1,16,18,20,22,24,26,28,-1,30,32,34,36,38,40,42,44,46,48,50,52,54,-1,-1,56,58,60,62,64,66,68,70,72,74,76,78,80,82,84,86,88,90,92,94,96,-1,98,100,-1,-1,-1,-1,-1,-1,-1,-1,-1,-1,-1,-1,-1,-1,-1,-1,-1,-1,-1,-1,-1,-1,-1,-1,-1,-1,-1,-1,-1,-1,-1,-1,-1,-1,-1,-1,-1,-1,-1,-1,-1,-1,-1,-1,-1,-1],"split_conditions":[2E0,-1.11E2,-5.6E1,1E0,1E0,1E0,-1.9E1,-5.8117923E-3,-1.15E2,2E0,3E0,1E0,1E0,-2.1E1,-1.3E1,7.105637E-3,1E0,-3.1E1,3E0,-1E0,1E0,-7.1E1,-1.09E2,-9.8E1,-9.1E1,-3.8E1,5E0,1E0,2E0,9.117966E-2,2.0560456E-2,1E0,-2E0,-4.8E1,2.8E1,-6.8E1,1E0,6.2E1,1.4E1,7E0,-6.1E1,7E0,-7.7E1,-1.13E2,6E0,8E0,2E0,-4.1E1,8E0,1E0,-2E1,1E0,2.7263606E-1,-3E0,1E1,-2.6528586E-2,2.7687859E-2,3.4671817E-2,9.360124E-3,2.649996E-2,-3.7951719E-3,-3.423824E-2,-4.264155E-3,-6.897275E-2,1.0764196E-2,-1.668812E-1,-4.3879293E-2,-6.543337E-2,1.5862886E-2,4.6126068E-2,-3.0438138E-2,9.443251E-3,-1.1917632E-4,-2.4471853E-3,-1.8116705E-2,-2.228363E-2,-3.6855952E-3,-1.3752119E-3,-8.508796E-3,2.7991392E-2,9.359856E-2,-1.3341637E-1,2.5481703E-2,7.604079E-3,1.0481339E-1,1.0972168E-1,4.639412E-2,-1.4890509E-2,-1.5729639E-1,-4.153757E-2,9.3616426E-2,3.8741725E-3,-3.1933442E-1,7.954903E-2,-1.1458894E-1,9.169605E-4,-9.8481905E-3,-2.2476519E-2,1.3306899E-3,8.283644E-3,4.217855E-2],"split_indices":[3,2,2,0,0,0,2,0,2,1,2,1,1,2,2,0,3,2,2,2,1,2,2,2,2,2,3,0,0,0,0,1,2,2,2,2,2,2,2,3,2,3,2,2,3,3,0,2,3,0,2,1,0,2,3,0,0,0,0,0,0,0,0,0,0,0,0,0,0,0,0,0,0,0,0,0,0,0,0,0,0,0,0,0,0,0,0,0,0,0,0,0,0,0,0,0,0,0,0,0,0],"split_type":[0,0,0,0,0,0,0,0,0,0,0,0,0,0,0,0,0,0,0,0,0,0,0,0,0,0,0,0,0,0,0,0,0,0,0,0,0,0,0,0,0,0,0,0,0,0,0,0,0,0,0,0,0,0,0,0,0,0,0,0,0,0,0,0,0,0,0,0,0,0,0,0,0,0,0,0,0,0,0,0,0,0,0,0,0,0,0,0,0,0,0,0,0,0,0,0,0,0,0,0,0],"sum_hessian":[1.12E3,1.85E2,9.35E2,6E0,1.79E2,8.1E1,8.54E2,1E0,5E0,6E1,1.19E2,3E1,5.1E1,5.9E1,7.95E2,1E0,4E0,3.6E1,2.4E1,7.4E1,4.5E1,1E1,2E1,1.3E1,3.8E1,5.3E1,6E0,6E0,7.89E2,3E0,1E0,8E0,2.8E1,1.8E1,6E0,5E1,2.4E1,1.4E1,3.1E1,8E0,2E0,5E0,1.5E1,5E0,8E0,1.5E1,2.3E1,3E1,2.3E1,3E0,3E0,4E0,2E0,5.43E2,2.46E2,7E0,1E0,4E0,2.4E1,3E0,1.5E1,5E0,1E0,1.2E1,3.8E1,1.2E1,1.2E1,1E1,4E0,2E1,1.1E1,6E0,2E0,1E0,1E0,4E0,1E0,6E0,9E0,3E0,2E0,5E0,3E0,1E1,5E0,1.4E1,9E0,2.4E1,6E0,1.2E1,1.1E1,1E0,2E0,1E0,2E0,2E0,2E0,8.3E1,4.6E2,1.96E2,5E1],"tree_param":{"num_deleted":"0","num_feature":"4","num_nodes":"101","size_leaf_vector":"1"}},{"base_weights":[1.6536505E-3,-5.5495747E-3,5.6132603E-2,2.8114878E-3,-2.73476E-1,3.1853575E-1,1.9455165E-2,-4.2500277E-3,3.9559868E-1,-8.185585E-1,-1.5813413E-1,-3.65082E-3,3.4139404E-1,-5.5687997E-2,7.3316336E-2,2.1804446E-2,-3.7927605E-2,-2.4414077E-2,6.26916E-1,-1.8420411E-2,-2.9774925E-1,-3.5434905E-1,-3.3411577E-2,2.5008106E-1,5.299845E-1,-1.4157017E-1,7.591965E-2,1.7758392E-1,2.926189E-2,-3.086325E-3,7.6523006E-2,-1.988848E-1,7.385714E-4,-3.633425E-3,-1.5273143E-2,2.8232576E-2,6.707859E-1,-6.355686E-1,-1.4303087E-1,2.536596E-1,-2.1305583E-1,2.9999414E-2,1.20898984E-1,1.9091149E-1,3.162346E-2,3.470991E-2,-3.455124E-1,-2.0713212E-2,2.2345811E-1,-2.566594E-2,3.8340038E-1,-2.3241717E-2,1.7644432E-1,-8.770423E-3,9.672607E-3,6.851847E-3,5.012108E-2,2.8576395E-2,-8.955565E-2,1.3877162E-2,-8.117283E-3,4.107844E-5,-2.8072258E-3,1.285062E-1,2.782036E-1,1.5856363E-2,-2.6479837E-1,-1.2362992E-2,-6.272822E-2,-5.5280984E-3,1.098539E-1,-2.8830825E-3,-9.8381266E-2,6.076384E-2,-6.301881E-2,2.723566E-2,3.141711E-3,4.1145634E-2,-1.6568804E-1,2.6874162E-2,-1.1210822E-2,1.0509285E-2,9.885247E-2,-2.4894971E-2,2.8615542E-2,1.6651864E-1,5.293466E-2,-3.9735984E-2,2.2863233E-2,-1.9658406E-3,6.309367E-2],"categories":[],"categories_nodes":[],"categories_segments":[],"categories_sizes":[],"default_left":[0,0,0,0,0,0,0,0,0,0,0,0,0,0,0,0,0,0,0,0,0,0,0,0,0,0,0,0,0,0,0,0,0,0,0,0,0,0,0,0,0,0,0,0,0,0,0,0,0,0,0,0,0,0,0,0,0,0,0,0,0,0,0,0,0,0,0,0,0,0,0,0,0,0,0,0,0,0,0,0,0,0,0,0,0,0,0,0,0,0,0],"id":25,"left_children":[1,3,5,7,9,11,13,15,17,19,21,-1,23,25,27,29,31,33,35,-1,-1,37,39,41,43,45,47,49,51,53,55,57,59,61,-1,-1,63,65,67,69,71,73,-1,-1,-1,75,77,79,81,83,85,87,89,-1,-1,-1,-1,-1,-1,-1,-1,-1,-1,-1,-1,-1,-1,-1,-1,-1,-1,-1,-1,-1,-1,-1,-1,-1,-1,-1,-1,-1,-1,-1,-1,-1,-1,-1,-1,-1,-1],"loss_changes":[4.4021899E-1,2.2207572E0,1.2545829E0,2.6699548E0,1.7566831E0,1.2510443E-1,4.735695E-1,8.308962E-1,1.6669617E0,5.975547E-1,6.244437E-1,0E0,1.2577236E-1,5.6458277E-1,3.0715823E-1,7.275374E-1,2.5704932E0,3.669308E-3,1.9398975E-1,0E0,0E0,5.033622E-1,9.307454E-1,3.917573E-1,1.13595486E-1,1.0905213E0,2.8976983E-1,8.464836E-1,3.827537E-1,3.4089378E-1,8.079536E-1,2.37294E0,4.2384312E-1,1.09188695E-4,0E0,0E0,2.2474957E-1,7.270696E-1,3.8469523E-2,2.2105399E-1,2.5394234E-1,2.910789E-1,0E0,0E0,0E0,2.2154558E-2,1.4730302E0,2.7229529E-2,1.483188E-1,8.423689E-2,2.5731647E-1,4.1196477E-1,8.194864E-2,0E0,0E0,0E0,0E0,0E0,0E0,0E0,0E0,0E0,0E0,0E0,0E0,0E0,0E0,0E0,0E0,0E0,0E0,0E0,0E0,0E0,0E0,0E0,0E0,0E0,0E0,0E0,0E0,0E0,0E0,0E0,0E0,0E0,0E0,0E0,0E0,0E0,0E0],"parents":[2147483647,0,0,1,1,2,2,3,3,4,4,5,5,6,6,7,7,8,8,9,9,10,10,12,12,13,13,14,14,15,15,16,16,17,17,18,18,21,21,22,22,23,23,24,24,25,25,26,26,27,27,28,28,29,29,30,30,31,31,32,32,33,33,36,36,37,37,38,38,39,39,40,40,41,41,45,45,46,46,47,47,48,48,49,49,50,50,51,51,52,52],"right_children":[2,4,6,8,10,12,14,16,18,20,22,-1,24,26,28,30,32,34,36,-1,-1,38,40,42,44,46,48,50,52,54,56,58,60,62,-1,-1,64,66,68,70,72,74,-1,-1,-1,76,78,80,82,84,86,88,90,-1,-1,-1,-1,-1,-1,-1,-1,-1,-1,-1,-1,-1,-1,-1,-1,-1,-1,-1,-1,-1,-1,-1,-1,-1,-1,-1,-1,-1,-1,-1,-1,-1,-1,-1,-1,-1,-1],"split_conditions":[3.6E1,1.5E1,4.4E1,8E0,1.8E1,1E0,1E0,0E0,1E0,1E0,4E0,-3.65082E-3,4.2E1,9.4E1,6.9E1,8E0,1E0,9E0,1E0,-1.8420411E-2,-2.9774925E-1,2.3E1,2.6E1,1E0,1E0,1E0,7E0,5.4E1,1.12E2,2E0,-3E0,1E0,5E0,2E0,-1.5273143E-2,2.8232576E-2,1E0,1.9E1,1E0,1E0,1E0,7E0,1.20898984E-1,1.9091149E-1,3.162346E-2,3E0,6E1,9.8E1,2E0,5E1,6E0,6E0,1E0,-8.770423E-3,9.672607E-3,6.851847E-3,5.012108E-2,2.8576395E-2,-8.955565E-2,1.3877162E-2,-8.117283E-3,4.107844E-5,-2.8072258E-3,1.285062E-1,2.782036E-1,1.5856363E-2,-2.6479837E-1,-1.2362992E-2,-6.272822E-2,-5.5280984E-3,1.098539E-1,-2.8830825E-3,-9.8381266E-2,6.076384E-2,-6.301881E-2,2.723566E-2,3.141711E-3,4.1145634E-2,-1.6568804E-1,2.6874162E-2,-1.1210822E-2,1.0509285E-2,9.885247E-2,-2.4894971E-2,2.8615542E-2,1.6651864E-1,5.293466E-2,-3.9735984E-2,2.2863233E-2,-1.9658406E-3,6.309367E-2],"split_indices":[2,2,2,2,2,0,1,2,0,3,3,0,2,2,2,3,2,3,3,0,0,2,2,1,1,0,3,2,2,1,2,0,3,1,0,0,1,2,0,0,0,3,0,0,0,3,2,2,0,2,3,3,0,0,0,0,0,0,0,0,0,0,0,0,0,0,0,0,0,0,0,0,0,0,0,0,0,0,0,0,0,0,0,0,0,0,0,0,0,0,0],"split_type":[0,0,0,0,0,0,0,0,0,0,0,0,0,0,0,0,0,0,0,0,0,0,0,0,0,0,0,0,0,0,0,0,0,0,0,0,0,0,0,0,0,0,0,0,0,0,0,0,0,0,0,0,0,0,0,0,0,0,0,0,0,0,0,0,0,0,0,0,0,0,0,0,0,0,0,0,0,0,0,0,0,0,0,0,0,0,0,0,0,0,0],"sum_hessian":[1.12E3,9.9E2,1.3E2,9.61E2,2.9E1,1.5E1,1.15E2,9.45E2,1.6E1,4E0,2.5E1,1E0,1.4E1,4.8E1,6.7E1,5.33E2,4.12E2,6E0,1E1,1E0,3E0,9E0,1.6E1,1.1E1,3E0,2.9E1,1.9E1,1.9E1,4.8E1,3.67E2,1.66E2,7.9E1,3.33E2,4E0,2E0,1E0,9E0,3E0,6E0,6E0,1E1,5E0,6E0,2E0,1E0,1.6E1,1.3E1,1.2E1,7E0,1E1,9E0,3.6E1,1.2E1,2.11E2,1.56E2,1.05E2,6.1E1,2E1,5.9E1,1.26E2,2.07E2,3E0,1E0,6E0,3E0,1E0,2E0,3E0,3E0,2E0,4E0,4E0,6E0,3E0,2E0,4E0,1.2E1,4E0,9E0,1E0,1.1E1,3E0,4E0,7E0,3E0,4E0,5E0,1.7E1,1.9E1,2E0,1E1],"tree_param":{"num_deleted":"0","num_feature":"4","num_nodes":"91","size_leaf_vector":"1"}},{"base_weights":[1.5305982E-3,-1.2497931E-2,3.2857917E-2,-1.8698482E-2,3.9423514E-2,3.4050447E-1,2.8277477E-2,7.1390946E-3,-4.234317E-2,1.1460399E-1,-7.599542E-3,2.6395416E-2,1.4385682E-1,1.422935E-2,9.56578E-2,-1.8997006E-2,6.3823774E-2,-1.2921894E-1,-1.5628124E-2,8.418224E-2,1.5865174E-1,-2.4676425E-2,2.0349216E-1,5.284792E-2,-1.7146641E-2,1.5034358E-1,-1.045663E-2,1.4999546E-2,-1.3727915E-1,-3.7308387E-2,1.8469548E-1,-3.8970536E-1,-5.342101E-2,1.4653079E-1,-3.9587352E-2,-8.294437E-3,1.3545914E-1,9.318712E-3,-1.4296132E-1,9.367562E-3,7.515182E-2,9.195174E-2,-1.3974103E-1,-3.6337547E-2,1.6822916E-1,9.047305E-2,1.01957835E-1,-1.6507891E-1,9.7393915E-2,-3.8188067E-3,2.6477972E-2,6.380539E-2,-8.263383E-2,1.0977446E-2,-1.7841116E-2,-3.625982E-2,7.1943745E-2,7.998314E-3,-2.0848231E-1,-8.4901094E-2,-9.102512E-3,-9.941507E-3,9.841229E-2,-4.9007617E-2,-4.537321E-3,2.0623967E-2,-6.464355E-3,2.4292517E-2,8.481491E-2,6.787466E-3,-5.710204E-3,-1.2472733E-1,2.1694891E-2,3.8149015E-3,1.14234105E-1,-1.1249755E-1,-8.425498E-3,-6.7221504E-3,-1.5548974E-1,6.618399E-2,5.801468E-3,5.011585E-2,-8.523208E-3,-6.670761E-2,-2.9813766E-2,1.21714026E-1,1.3358376E-3],"categories":[],"categories_nodes":[],"categories_segments":[],"categories_sizes":[],"default_left":[0,0,0,0,0,0,0,0,0,0,0,0,0,0,0,0,0,0,0,0,0,0,0,0,0,0,0,0,0,0,0,0,0,0,0,0,0,0,0,0,0,0,0,0,0,0,0,0,0,0,0,0,0,0,0,0,0,0,0,0,0,0,0,0,0,0,0,0,0,0,0,0,0,0,0,0,0,0,0,0,0,0,0,0,0,0,0],"id":26,"left_children":[1,3,5,7,9,11,13,15,17,19,21,-1,-1,23,25,27,29,31,33,35,-1,37,39,41,43,45,47,49,51,53,55,57,59,61,63,65,67,69,71,-1,-1,73,75,77,79,81,-1,83,85,-1,-1,-1,-1,-1,-1,-1,-1,-1,-1,-1,-1,-1,-1,-1,-1,-1,-1,-1,-1,-1,-1,-1,-1,-1,-1,-1,-1,-1,-1,-1,-1,-1,-1,-1,-1,-1,-1],"loss_changes":[4.9306348E-1,2.5024188E-1,4.7934863E-1,4.2367086E-1,2.9429382E-1,1.3333362E-1,3.233115E-1,4.9307597E-1,8.381428E-1,3.5873738E-1,1.9247045E-1,0E0,0E0,3.462395E-1,3.4394616E-1,9.188893E-1,1.2904125E0,1.6574495E0,1.0858872E0,1.48123E-1,0E0,1.9836669E-1,2.4573684E-2,9.768128E-1,5.6820273E-1,4.1176212E-1,3.6627573E-1,3.6271784E-1,2.524608E0,9.7166695E-2,8.373836E-1,2.4332354E0,3.464198E-1,1.1848948E0,7.332878E-1,1.3734014E-2,1.3757053E-1,1.514403E-2,6.7606276E-1,0E0,0E0,2.4439013E0,5.673462E-1,9.551891E-1,1.1272663E-1,2.8697282E-1,0E0,1.177156E-2,3.7071574E-1,0E0,0E0,0E0,0E0,0E0,0E0,0E0,0E0,0E0,0E0,0E0,0E0,0E0,0E0,0E0,0E0,0E0,0E0,0E0,0E0,0E0,0E0,0E0,0E0,0E0,0E0,0E0,0E0,0E0,0E0,0E0,0E0,0E0,0E0,0E0,0E0,0E0,0E0],"parents":[2147483647,0,0,1,1,2,2,3,3,4,4,5,5,6,6,7,7,8,8,9,9,10,10,13,13,14,14,15,15,16,16,17,17,18,18,19,19,21,21,22,22,23,23,24,24,25,25,26,26,27,27,28,28,29,29,30,30,31,31,32,32,33,33,34,34,35,35,36,36,37,37,38,38,41,41,42,42,43,43,44,44,45,45,47,47,48,48],